{"learner":{"attributes":{"scikit_learn":"{\"_estimator_type\": \"regressor\"}"},"feature_names":["PM2.5","PM10","Carbon_Monoxide_CO","Nitrogen_Dioxide_NO2","Sulphur_Dioxide_SO2","Ozone_O3","Temperature","Humidity","Wind_Speed","Air_Pressure","Rainfall","PM2.5_3h_Mean","PM2.5_3h_Std","PM2.5_6h_Mean","PM2.5_6h_Std","PM2.5_24h_Mean","PM2.5_24h_Std"],"feature_types":["float","float","float","float","float","float","float","int","float","float","float","float","float","float","float","float","float"],"gradient_booster":{"model":{"cats":{"enc":[],"feature_segments":[],"sorted_idx":[]},"gbtree_model_param":{"num_parallel_tree":"1","num_trees":"100"},"iteration_indptr":[0,1,2,3,4,5,6,7,8,9,10,11,12,13,14,15,16,17,18,19,20,21,22,23,24,25,26,27,28,29,30,31,32,33,34,35,36,37,38,39,40,41,42,43,44,45,46,47,48,49,50,51,52,53,54,55,56,57,58,59,60,61,62,63,64,65,66,67,68,69,70,71,72,73,74,75,76,77,78,79,80,81,82,83,84,85,86,87,88,89,90,91,92,93,94,95,96,97,98,99,100],"tree_info":[0,0,0,0,0,0,0,0,0,0,0,0,0,0,0,0,0,0,0,0,0,0,0,0,0,0,0,0,0,0,0,0,0,0,0,0,0,0,0,0,0,0,0,0,0,0,0,0,0,0,0,0,0,0,0,0,0,0,0,0,0,0,0,0,0,0,0,0,0,0,0,0,0,0,0,0,0,0,0,0,0,0,0,0,0,0,0,0,0,0,0,0,0,0,0,0,0,0,0,0],"trees":[{"base_weights":[3.4697312E-6,-7.120095E0,1.6235018E1,-1.8512085E1,-2.5419354E0,1.0528035E1,2.8323729E1,-2.3970093E1,-4.1612725E0,-5.589755E0,8.7037736E-1,7.3663893E0,1.4976198E1,2.3949663E1,3.6044743E1,-3.0063053E1,-1.8210985E1,-7.1249127E0,-4.9801528E-1,-6.2136908E0,6.057538E-1,-5.4959995E-1,2.718177E0,5.846662E0,8.78256E0,1.2770834E1,1.6805063E1,2.2084953E1,2.7022036E1,3.3216972E1,4.5615993E1,-3.1235487E1,-1.915076E1,-2.1494835E1,-1.5589292E1,-9.598835E0,-5.6802263E0,-1.8510001E0,2.314584E0,-8.151171E0,-4.5714006E0,-8.247969E-1,3.2347486E0,-7.8293973E-1,3.8598816E0,1.8552147E0,3.5740814E0,5.757868E0,1.286219E1,7.9419312E0,9.853609E0,1.255571E1,1.8970957E1,1.5453937E1,1.77455E1,2.1827263E1,3.4243656E1,3.1489801E1,1.3059362E0,3.1874105E1,1.8194841E0,2.082445E0,2.455641E0,-1.7844406E0,-1.437069E0,-1.1176246E0,-7.9190177E-1,-1.085605E0,-6.200678E-1,-8.767959E-1,-7.354491E-1,-5.9993577E-1,-4.38383E-1,-3.335999E-1,-2.37703E-1,-1.3133825E-1,-4.1334968E-2,7.43703E-2,2.2803597E-1,-5.177498E-1,-3.7471634E-1,-2.8083232E-1,-1.8593328E-1,-8.126476E-2,1.0606973E-2,1.0485357E-1,2.2709802E-1,-4.1665077E-2,7.3278594E-1,1.3471848E-1,3.0705053E-1,8.573239E-2,3.382986E-1,1.7554913E-1,7.0979613E-1,2.4875847E-1,3.2136744E-1,2.7562523E-1,8.72786E-1,6.818752E-1,3.939565E-1,4.6860763E-1,5.2246195E-1,5.6666005E-1,6.526805E-1,1.1396074E0,5.149353E-1,7.511458E-1,9.492116E-1,9.466445E-1,8.5957634E-1,1.0127963E0,1.167268E0,1.7607565E0,4.4321442E-1,1.2940876E0,1.9315227E0,1.5457195E0,2.0189526E0],"categories":[],"categories_nodes":[],"categories_segments":[],"categories_sizes":[],"default_left":[0,0,0,0,0,0,0,0,0,0,0,0,0,0,0,0,0,0,0,0,0,0,0,0,0,0,0,0,0,0,0,0,0,0,0,0,0,0,0,0,0,0,0,0,0,0,0,0,0,0,0,0,0,0,0,0,0,0,0,0,0,0,0,0,0,0,0,0,0,0,0,0,0,0,0,0,0,0,0,0,0,0,0,0,0,0,0,0,0,0,0,0,0,0,0,0,0,0,0,0,0,0,0,0,0,0,0,0,0,0,0,0,0,0,0,0,0,0,0],"id":0,"left_children":[1,3,5,7,9,11,13,15,17,19,21,23,25,27,29,31,33,35,37,39,41,43,45,47,49,51,53,55,57,59,61,63,65,67,69,71,73,75,77,79,81,83,85,87,89,91,93,95,97,99,101,103,105,107,109,111,113,115,-1,117,-1,-1,-1,-1,-1,-1,-1,-1,-1,-1,-1,-1,-1,-1,-1,-1,-1,-1,-1,-1,-1,-1,-1,-1,-1,-1,-1,-1,-1,-1,-1,-1,-1,-1,-1,-1,-1,-1,-1,-1,-1,-1,-1,-1,-1,-1,-1,-1,-1,-1,-1,-1,-1,-1,-1,-1,-1,-1,-1],"loss_changes":[2.812308E6,8.819873E5,5.1140112E5,3.7962888E5,1.2548223E5,7.076981E4,7.9446875E4,1.22688625E5,1.4511689E4,2.4639234E4,1.4938977E4,6.293328E3,8.227125E3,8.11725E3,2.1706875E4,2.12155E4,1.5230375E4,2.5866953E3,2.2837214E3,1.8385969E4,2.1990398E3,3.3161045E3,1.8206992E3,8.136289E2,1.2938828E3,1.0329219E3,1.1755625E3,2.235375E3,1.4779062E3,1.6776875E3,6.318125E2,1.6056875E4,1.4278633E3,1.3113125E3,1.4711406E3,4.3536914E2,3.990791E2,3.196482E2,3.5551733E2,3.7657031E3,2.7742852E3,3.1493973E2,2.9683496E2,2.3906445E3,4.141604E2,8.402163E2,7.819072E2,7.0633984E2,4.777119E2,1.9980078E2,9.305469E1,4.1448438E2,7.5941895E2,4.3909375E2,1.12578125E2,1.7575E3,1.3163867E2,2.644289E3,0E0,2.6369688E3,0E0,0E0,0E0,0E0,0E0,0E0,0E0,0E0,0E0,0E0,0E0,0E0,0E0,0E0,0E0,0E0,0E0,0E0,0E0,0E0,0E0,0E0,0E0,0E0,0E0,0E0,0E0,0E0,0E0,0E0,0E0,0E0,0E0,0E0,0E0,0E0,0E0,0E0,0E0,0E0,0E0,0E0,0E0,0E0,0E0,0E0,0E0,0E0,0E0,0E0,0E0,0E0,0E0,0E0,0E0,0E0,0E0,0E0,0E0],"parents":[2147483647,0,0,1,1,2,2,3,3,4,4,5,5,6,6,7,7,8,8,9,9,10,10,11,11,12,12,13,13,14,14,15,15,16,16,17,17,18,18,19,19,20,20,21,21,22,22,23,23,24,24,25,25,26,26,27,27,28,28,29,29,30,30,31,31,32,32,33,33,34,34,35,35,36,36,37,37,38,38,39,39,40,40,41,41,42,42,43,43,44,44,45,45,46,46,47,47,48,48,49,49,50,50,51,51,52,52,53,53,54,54,55,55,56,56,57,57,59,59],"right_children":[2,4,6,8,10,12,14,16,18,20,22,24,26,28,30,32,34,36,38,40,42,44,46,48,50,52,54,56,58,60,62,64,66,68,70,72,74,76,78,80,82,84,86,88,90,92,94,96,98,100,102,104,106,108,110,112,114,116,-1,118,-1,-1,-1,-1,-1,-1,-1,-1,-1,-1,-1,-1,-1,-1,-1,-1,-1,-1,-1,-1,-1,-1,-1,-1,-1,-1,-1,-1,-1,-1,-1,-1,-1,-1,-1,-1,-1,-1,-1,-1,-1,-1,-1,-1,-1,-1,-1,-1,-1,-1,-1,-1,-1,-1,-1,-1,-1,-1,-1],"split_conditions":[4.1995834E1,2.4020834E1,6.0195835E1,1.24E2,3.30625E1,4.9925E1,7.2441666E1,2.0604166E1,1.61E2,1.66E2,3.7495834E1,4.51375E1,5.38375E1,6.67E1,8.572083E1,1.05E2,2.2270834E1,1.39E2,1.83E2,2.8108334E1,1.88E2,1.88E2,3.9529167E1,1.369E2,4.75375E1,1.318E2,5.615E1,1.807E2,1.0118E3,7.965417E1,9.242083E1,1.7245832E1,1.15E2,6.85E1,2.2808332E1,1.28E2,1.5E2,1.72E2,1.99E2,2.495E1,3.0166666E1,1.77E2,1.99E2,1.807E2,2.05E2,2.05E2,1.43E2,4.3345833E1,1.0078E3,2.52E2,4.8754166E1,5.1241665E1,8.38E1,1.157E2,1.009E3,6.31375E1,1.073E2,1.19443445E1,1.3059362E0,2.67E1,1.8194841E0,2.082445E0,2.455641E0,-1.7844406E0,-1.437069E0,-1.1176246E0,-7.9190177E-1,-1.085605E0,-6.200678E-1,-8.767959E-1,-7.354491E-1,-5.9993577E-1,-4.38383E-1,-3.335999E-1,-2.37703E-1,-1.3133825E-1,-4.1334968E-2,7.43703E-2,2.2803597E-1,-5.177498E-1,-3.7471634E-1,-2.8083232E-1,-1.8593328E-1,-8.126476E-2,1.0606973E-2,1.0485357E-1,2.2709802E-1,-4.1665077E-2,7.3278594E-1,1.3471848E-1,3.0705053E-1,8.573239E-2,3.382986E-1,1.7554913E-1,7.0979613E-1,2.4875847E-1,3.2136744E-1,2.7562523E-1,8.72786E-1,6.818752E-1,3.939565E-1,4.6860763E-1,5.2246195E-1,5.6666005E-1,6.526805E-1,1.1396074E0,5.149353E-1,7.511458E-1,9.492116E-1,9.466445E-1,8.5957634E-1,1.0127963E0,1.167268E0,1.7607565E0,4.4321442E-1,1.2940876E0,1.9315227E0,1.5457195E0,2.0189526E0],"split_indices":[15,15,15,5,15,15,15,15,5,5,15,15,15,15,15,5,15,5,5,15,5,5,15,1,15,1,15,1,9,15,15,15,5,1,15,5,5,5,5,15,15,5,5,1,5,5,1,15,9,2,15,15,0,1,9,15,0,16,0,6,0,0,0,0,0,0,0,0,0,0,0,0,0,0,0,0,0,0,0,0,0,0,0,0,0,0,0,0,0,0,0,0,0,0,0,0,0,0,0,0,0,0,0,0,0,0,0,0,0,0,0,0,0,0,0,0,0,0,0],"split_type":[0,0,0,0,0,0,0,0,0,0,0,0,0,0,0,0,0,0,0,0,0,0,0,0,0,0,0,0,0,0,0,0,0,0,0,0,0,0,0,0,0,0,0,0,0,0,0,0,0,0,0,0,0,0,0,0,0,0,0,0,0,0,0,0,0,0,0,0,0,0,0,0,0,0,0,0,0,0,0,0,0,0,0,0,0,0,0,0,0,0,0,0,0,0,0,0,0,0,0,0,0,0,0,0,0,0,0,0,0,0,0,0,0,0,0,0,0,0,0],"sum_hessian":[2.4327E4,1.6911E4,7.416E3,4.847E3,1.2064E4,5.039E3,2.377E3,3.511E3,1.336E3,6.372E3,5.692E3,2.947E3,2.092E3,1.52E3,8.57E2,1.704E3,1.807E3,7.38E2,5.98E2,5.789E3,5.83E2,3.219E3,2.473E3,1.424E3,1.523E3,9.52E2,1.14E3,9.51E2,5.69E2,6.65E2,1.92E2,1.537E3,1.67E2,7.99E2,1.008E3,2.7E2,4.68E2,4.04E2,1.94E2,2.654E3,3.135E3,3.78E2,2.05E2,3.058E3,1.61E2,1.233E3,1.24E3,1.408E3,1.6E1,8.58E2,6.65E2,9.23E2,2.9E1,4.75E2,6.65E2,9.34E2,1.7E1,9E1,4.79E2,4.75E2,1.9E2,9.6E1,9.6E1,5.47E2,9.9E2,8.2E1,8.5E1,7.79E2,2E1,3.08E2,7E2,6.6E1,2.04E2,2.23E2,2.45E2,2.29E2,1.75E2,1.43E2,5.1E1,6.06E2,2.048E3,1.406E3,1.729E3,2.13E2,1.65E2,1.11E2,9.4E1,3.049E3,9E0,1.08E2,5.3E1,1.2E3,3.3E1,1.234E3,6E0,6.53E2,7.55E2,7E0,9E0,7E0,8.51E2,3.77E2,2.88E2,2.74E2,6.49E2,1.9E1,1E1,4.28E2,4.7E1,2.01E2,4.64E2,4.66E2,4.68E2,1.6E1,1E0,5.3E1,3.7E1,4.31E2,4.4E1],"tree_param":{"num_deleted":"0","num_feature":"17","num_nodes":"119","size_leaf_vector":"1"}},{"base_weights":[8.4275834E-4,-6.7645974E0,1.5427177E1,-1.7437689E1,-2.3528092E0,1.0003652E1,2.6915464E1,-2.2561811E1,-3.9510434E0,-5.199053E0,8.7335277E-1,6.9993544E0,1.4230437E1,2.2758041E1,3.425407E1,-2.8562908E1,-1.7107327E1,-6.766524E0,-4.6444803E-1,-5.779833E0,5.966849E-1,-4.7508097E-1,2.5827963E0,5.351637E0,8.180861E0,1.2135309E1,1.5967885E1,2.0985313E1,2.567888E1,3.1564207E1,4.3358707E1,-2.9642385E1,-1.788042E1,-2.0422228E1,-1.463829E1,-9.09422E0,-5.3879657E0,-1.7580953E0,2.1963193E0,-7.6256275E0,-4.302317E0,-7.723128E-1,3.1047163E0,-6.960924E-1,3.6414642E0,1.7627985E0,3.3960876E0,5.2720814E0,1.190773E1,7.4236255E0,9.362418E0,1.2023073E1,1.1945174E0,1.5035759E1,8.619267E-1,2.0738232E1,3.2653915E1,2.9950754E1,1.2407755E0,3.0287886E1,1.7289864E0,1.9793962E0,2.3341246E0,-1.6937898E0,-1.3639821E0,-1.0460997E0,-7.5276715E-1,-1.0998259E0,-9.558452E-1,-7.7983254E-1,-6.329633E-1,-5.385796E-1,-4.0021014E-1,-3.1626067E-1,-2.254062E-1,-1.245384E-1,-3.9252095E-2,5.4931816E-2,1.8652096E-1,-4.5846924E-1,-3.4760043E-1,-2.6680076E-1,-1.747306E-1,-4.375499E-2,3.514751E-1,9.953915E-2,2.1743786E-1,-3.805397E-2,5.333935E-1,1.2804429E-1,2.9182476E-1,8.144938E-2,3.2188132E-1,1.6677862E-1,6.793765E-1,2.3633964E-1,2.9453248E-1,2.9733428E-1,8.5096234E-1,5.2307886E-1,3.6558327E-1,4.452393E-1,4.964293E-1,5.703227E-1,6.4557475E-1,7.3071045E-1,9.1813135E-1,9.6226496E-1,1.1090292E0,1.6778975E0,4.3213406E-1,1.2677827E0,1.9013287E0,1.4686123E0,1.9202484E0],"categories":[],"categories_nodes":[],"categories_segments":[],"categories_sizes":[],"default_left":[0,0,0,0,0,0,0,0,0,0,0,0,0,0,0,0,0,0,0,0,0,0,0,0,0,0,0,0,0,0,0,0,0,0,0,0,0,0,0,0,0,0,0,0,0,0,0,0,0,0,0,0,0,0,0,0,0,0,0,0,0,0,0,0,0,0,0,0,0,0,0,0,0,0,0,0,0,0,0,0,0,0,0,0,0,0,0,0,0,0,0,0,0,0,0,0,0,0,0,0,0,0,0,0,0,0,0,0,0,0,0,0,0,0,0],"id":1,"left_children":[1,3,5,7,9,11,13,15,17,19,21,23,25,27,29,31,33,35,37,39,41,43,45,47,49,51,53,55,57,59,61,63,65,67,69,71,73,75,77,79,81,83,85,87,89,91,93,95,97,99,101,103,-1,105,-1,107,109,111,-1,113,-1,-1,-1,-1,-1,-1,-1,-1,-1,-1,-1,-1,-1,-1,-1,-1,-1,-1,-1,-1,-1,-1,-1,-1,-1,-1,-1,-1,-1,-1,-1,-1,-1,-1,-1,-1,-1,-1,-1,-1,-1,-1,-1,-1,-1,-1,-1,-1,-1,-1,-1,-1,-1,-1,-1],"loss_changes":[2.539119E6,7.963014E5,4.6186212E5,3.4171538E5,1.0989084E5,6.3900906E4,7.17725E4,1.16826E5,1.3376666E4,2.1404781E4,1.2932678E4,5.6953594E3,7.425125E3,7.336625E3,1.9644E4,1.9131125E4,1.5088125E4,2.3704883E3,2.1035388E3,1.5727625E4,1.9938213E3,2.8565889E3,1.643916E3,5.8083984E2,1.4649375E3,9.7009375E2,1.0922188E3,2.0675E3,1.3590312E3,1.515875E3,5.7084375E2,1.454975E4,1.05125E3,1.2234688E3,1.8527969E3,4.2389453E2,3.640088E2,2.9105872E2,3.3269275E2,2.6067344E3,2.663125E3,3.076753E2,2.7542725E2,2.207399E3,3.6455762E2,7.6143335E2,7.200488E2,3.839961E2,3.2537183E2,2.8064844E2,8.414844E1,3.7095312E2,0E0,6.6565625E2,0E0,1.5865E3,1.0069336E2,2.41275E3,0E0,2.4097812E3,0E0,0E0,0E0,0E0,0E0,0E0,0E0,0E0,0E0,0E0,0E0,0E0,0E0,0E0,0E0,0E0,0E0,0E0,0E0,0E0,0E0,0E0,0E0,0E0,0E0,0E0,0E0,0E0,0E0,0E0,0E0,0E0,0E0,0E0,0E0,0E0,0E0,0E0,0E0,0E0,0E0,0E0,0E0,0E0,0E0,0E0,0E0,0E0,0E0,0E0,0E0,0E0,0E0,0E0,0E0],"parents":[2147483647,0,0,1,1,2,2,3,3,4,4,5,5,6,6,7,7,8,8,9,9,10,10,11,11,12,12,13,13,14,14,15,15,16,16,17,17,18,18,19,19,20,20,21,21,22,22,23,23,24,24,25,25,26,26,27,27,28,28,29,29,30,30,31,31,32,32,33,33,34,34,35,35,36,36,37,37,38,38,39,39,40,40,41,41,42,42,43,43,44,44,45,45,46,46,47,47,48,48,49,49,50,50,51,51,53,53,55,55,56,56,57,57,59,59],"right_children":[2,4,6,8,10,12,14,16,18,20,22,24,26,28,30,32,34,36,38,40,42,44,46,48,50,52,54,56,58,60,62,64,66,68,70,72,74,76,78,80,82,84,86,88,90,92,94,96,98,100,102,104,-1,106,-1,108,110,112,-1,114,-1,-1,-1,-1,-1,-1,-1,-1,-1,-1,-1,-1,-1,-1,-1,-1,-1,-1,-1,-1,-1,-1,-1,-1,-1,-1,-1,-1,-1,-1,-1,-1,-1,-1,-1,-1,-1,-1,-1,-1,-1,-1,-1,-1,-1,-1,-1,-1,-1,-1,-1,-1,-1,-1,-1],"split_conditions":[4.1995834E1,2.4166666E1,6.0195835E1,1.24E2,3.3191666E1,4.9925E1,7.2441666E1,2.0604166E1,1.61E2,1.66E2,3.7495834E1,4.4679165E1,5.38375E1,6.67E1,8.572083E1,1.06E2,2.2270834E1,1.39E2,1.83E2,2.8108334E1,1.88E2,1.88E2,3.9529167E1,1.369E2,4.75375E1,1.634E2,5.7304165E1,1.807E2,1.0118E3,7.965417E1,9.242083E1,1.7245832E1,1.15E2,2.1379168E1,2.3520834E1,1.3E2,1.5E2,1.72E2,1.94E2,2.5345833E1,3.0166666E1,4.7633335E1,1.99E2,1.509E2,2.05E2,2.05E2,1.43E2,4.3345833E1,1.0093E3,4.1E0,4.8754166E1,5.2508335E1,1.1945174E0,1.157E2,8.619267E-1,6.31375E1,1.073E2,1.0005E3,1.2407755E0,2.67E1,1.7289864E0,1.9793962E0,2.3341246E0,-1.6937898E0,-1.3639821E0,-1.0460997E0,-7.5276715E-1,-1.0998259E0,-9.558452E-1,-7.7983254E-1,-6.329633E-1,-5.385796E-1,-4.0021014E-1,-3.1626067E-1,-2.254062E-1,-1.245384E-1,-3.9252095E-2,5.4931816E-2,1.8652096E-1,-4.5846924E-1,-3.4760043E-1,-2.6680076E-1,-1.747306E-1,-4.375499E-2,3.514751E-1,9.953915E-2,2.1743786E-1,-3.805397E-2,5.333935E-1,1.2804429E-1,2.9182476E-1,8.144938E-2,3.2188132E-1,1.6677862E-1,6.793765E-1,2.3633964E-1,2.9453248E-1,2.9733428E-1,8.5096234E-1,5.2307886E-1,3.6558327E-1,4.452393E-1,4.964293E-1,5.703227E-1,6.4557475E-1,7.3071045E-1,9.1813135E-1,9.6226496E-1,1.1090292E0,1.6778975E0,4.3213406E-1,1.2677827E0,1.9013287E0,1.4686123E0,1.9202484E0],"split_indices":[15,15,15,5,15,15,15,15,5,5,15,15,15,15,15,5,15,5,5,15,5,5,15,1,15,1,15,1,9,15,15,15,5,15,15,5,5,5,5,15,15,11,5,1,5,5,1,15,9,4,15,15,0,1,0,15,0,9,0,6,0,0,0,0,0,0,0,0,0,0,0,0,0,0,0,0,0,0,0,0,0,0,0,0,0,0,0,0,0,0,0,0,0,0,0,0,0,0,0,0,0,0,0,0,0,0,0,0,0,0,0,0,0,0,0],"split_type":[0,0,0,0,0,0,0,0,0,0,0,0,0,0,0,0,0,0,0,0,0,0,0,0,0,0,0,0,0,0,0,0,0,0,0,0,0,0,0,0,0,0,0,0,0,0,0,0,0,0,0,0,0,0,0,0,0,0,0,0,0,0,0,0,0,0,0,0,0,0,0,0,0,0,0,0,0,0,0,0,0,0,0,0,0,0,0,0,0,0,0,0,0,0,0,0,0,0,0,0,0,0,0,0,0,0,0,0,0,0,0,0,0,0,0],"sum_hessian":[2.4327E4,1.6911E4,7.416E3,4.945E3,1.1966E4,5.039E3,2.377E3,3.583E3,1.362E3,6.357E3,5.609E3,2.947E3,2.092E3,1.52E3,8.57E2,1.704E3,1.879E3,7.53E2,6.09E2,5.778E3,5.79E2,3.136E3,2.473E3,1.233E3,1.714E3,9.52E2,1.14E3,9.51E2,5.69E2,6.65E2,1.92E2,1.546E3,1.58E2,7.99E2,1.08E3,2.78E2,4.75E2,4.1E2,1.99E2,2.567E3,3.211E3,3.75E2,2.04E2,2.977E3,1.59E2,1.233E3,1.24E3,1.22E3,1.3E1,1.049E3,6.65E2,9.45E2,7E0,6.65E2,4.75E2,9.34E2,1.7E1,9E1,4.79E2,4.75E2,1.9E2,9.6E1,9.6E1,5.49E2,9.97E2,7.3E1,8.5E1,3.55E2,4.44E2,7.23E2,3.57E2,1.06E2,1.72E2,2.27E2,2.48E2,2.33E2,1.77E2,1.17E2,8.2E1,7.76E2,1.791E3,1.406E3,1.805E3,3.71E2,4E0,1.09E2,9.5E1,2.961E3,1.6E1,1.08E2,5.1E1,1.2E3,3.3E1,1.234E3,6E0,6.53E2,5.67E2,7E0,6E0,3.4E1,1.015E3,3.77E2,2.88E2,5.66E2,3.79E2,5.95E2,7E1,4.66E2,4.68E2,1.6E1,1E0,6E1,3E1,4.31E2,4.4E1],"tree_param":{"num_deleted":"0","num_feature":"17","num_nodes":"115","size_leaf_vector":"1"}},{"base_weights":[1.5511282E-3,-6.4268517E0,1.4659385E1,-1.656777E1,-2.2350402E0,9.505141E0,2.5577269E1,-2.1523464E1,-3.9752636E0,-4.939199E0,8.3007133E-1,6.756741E0,1.3679331E1,2.1625786E1,3.255236E1,-2.7309847E1,-1.6284012E1,-7.233243E0,-1.0011553E0,-5.542023E0,1.1918503E-1,-4.510338E-1,2.4541607E0,5.734598E0,8.706439E0,1.1858019E1,1.5319187E1,1.9940437E1,2.4402674E1,2.999368E1,4.1213123E1,-2.8428734E1,-1.9527567E1,-1.944858E1,-1.391976E1,-1.0813211E1,-6.253036E0,-2.4954958E0,1.4482192E0,-7.336168E0,-4.1114216E0,-1.4296491E0,2.3941298E0,-6.381759E-1,3.9532535E0,1.6749835E0,3.2269652E0,4.8272185E0,6.5525208E0,8.060532E0,9.457318E0,1.1733275E1,1.1812354E0,1.4414111E1,8.18921E-1,1.9703535E1,3.1138445E1,2.848804E1,2.3577316E1,2.878061E1,1.6429895E0,1.8814471E0,2.2186217E0,-1.7323366E0,-1.3409759E0,-1.1097287E0,-7.7512145E-1,-9.8236275E-1,-5.383768E-1,-7.42232E-1,-6.0142094E-1,-5.8236915E-1,-4.5963356E-1,-3.5909352E-1,-2.5581256E-1,-1.7320794E-1,-8.4009975E-2,2.7621195E-2,1.7730716E-1,-4.5915833E-1,-3.3844957E-1,-2.5473407E-1,-1.6683494E-1,-7.8162156E-2,3.1851828E-1,7.2656E-2,2.0667922E-1,-7.417979E-2,8.008634E-3,1.5060437E-1,3.011905E-1,7.73802E-2,3.0626047E-1,1.5844645E-1,6.502604E-1,2.376902E-1,5.3343576E-1,4.363831E-1,3.1757337E-1,4.0031788E-1,7.797295E-1,4.6355468E-1,6.529793E-1,5.5511445E-1,6.322317E-1,7.0358247E-1,8.8250536E-1,9.1425467E-1,1.0536958E0,1.5989376E0,4.2133066E-1,1.1666062E0,1.7532595E0,1.1204661E0,1.2325969E0,1.3953516E0,1.8263695E0],"categories":[],"categories_nodes":[],"categories_segments":[],"categories_sizes":[],"default_left":[0,0,0,0,0,0,0,0,0,0,0,0,0,0,0,0,0,0,0,0,0,0,0,0,0,0,0,0,0,0,0,0,0,0,0,0,0,0,0,0,0,0,0,0,0,0,0,0,0,0,0,0,0,0,0,0,0,0,0,0,0,0,0,0,0,0,0,0,0,0,0,0,0,0,0,0,0,0,0,0,0,0,0,0,0,0,0,0,0,0,0,0,0,0,0,0,0,0,0,0,0,0,0,0,0,0,0,0,0,0,0,0,0,0,0,0,0],"id":2,"left_children":[1,3,5,7,9,11,13,15,17,19,21,23,25,27,29,31,33,35,37,39,41,43,45,47,49,51,53,55,57,59,61,63,65,67,69,71,73,75,77,79,81,83,85,87,89,91,93,95,97,99,101,103,-1,105,-1,107,109,111,113,115,-1,-1,-1,-1,-1,-1,-1,-1,-1,-1,-1,-1,-1,-1,-1,-1,-1,-1,-1,-1,-1,-1,-1,-1,-1,-1,-1,-1,-1,-1,-1,-1,-1,-1,-1,-1,-1,-1,-1,-1,-1,-1,-1,-1,-1,-1,-1,-1,-1,-1,-1,-1,-1,-1,-1,-1,-1],"loss_changes":[2.2924355E6,7.188722E5,4.1713712E5,3.0856762E5,9.919316E4,5.7728188E4,6.483825E4,1.07152E5,1.3538797E4,1.9388203E4,1.1673435E4,6.0103906E3,5.7916875E3,6.6316875E3,1.7777312E4,1.4117E4,1.36829375E4,2.272957E3,2.6828801E3,1.45513125E4,2.3923638E3,2.588125E3,1.4843184E3,1.4512109E3,4.3010938E2,1.1201875E3,7.6959375E2,1.9119688E3,1.2503125E3,1.36975E3,5.1575E2,1.3789625E4,1.9639688E3,1.1595938E3,1.6949062E3,8.488672E1,5.186504E2,3.535144E2,5.204894E2,2.5766719E3,2.3924297E3,4.3094098E2,4.441256E2,2.0318062E3,2.3129431E2,6.900344E2,6.630449E2,3.5712305E2,4.028789E2,1.0697266E2,1.9890625E2,4.0246875E2,0E0,3.877422E2,0E0,1.432125E3,7.405469E1,2.2677734E3,5.003125E1,2.2019375E3,0E0,0E0,0E0,0E0,0E0,0E0,0E0,0E0,0E0,0E0,0E0,0E0,0E0,0E0,0E0,0E0,0E0,0E0,0E0,0E0,0E0,0E0,0E0,0E0,0E0,0E0,0E0,0E0,0E0,0E0,0E0,0E0,0E0,0E0,0E0,0E0,0E0,0E0,0E0,0E0,0E0,0E0,0E0,0E0,0E0,0E0,0E0,0E0,0E0,0E0,0E0,0E0,0E0,0E0,0E0,0E0,0E0],"parents":[2147483647,0,0,1,1,2,2,3,3,4,4,5,5,6,6,7,7,8,8,9,9,10,10,11,11,12,12,13,13,14,14,15,15,16,16,17,17,18,18,19,19,20,20,21,21,22,22,23,23,24,24,25,25,26,26,27,27,28,28,29,29,30,30,31,31,32,32,33,33,34,34,35,35,36,36,37,37,38,38,39,39,40,40,41,41,42,42,43,43,44,44,45,45,46,46,47,47,48,48,49,49,50,50,51,51,53,53,55,55,56,56,57,57,58,58,59,59],"right_children":[2,4,6,8,10,12,14,16,18,20,22,24,26,28,30,32,34,36,38,40,42,44,46,48,50,52,54,56,58,60,62,64,66,68,70,72,74,76,78,80,82,84,86,88,90,92,94,96,98,100,102,104,-1,106,-1,108,110,112,114,116,-1,-1,-1,-1,-1,-1,-1,-1,-1,-1,-1,-1,-1,-1,-1,-1,-1,-1,-1,-1,-1,-1,-1,-1,-1,-1,-1,-1,-1,-1,-1,-1,-1,-1,-1,-1,-1,-1,-1,-1,-1,-1,-1,-1,-1,-1,-1,-1,-1,-1,-1,-1,-1,-1,-1,-1,-1],"split_conditions":[4.1995834E1,2.4166666E1,6.0195835E1,1.22E2,3.3191666E1,5.0441666E1,7.2441666E1,2.0604166E1,1.55E2,1.6E2,3.7495834E1,4.66E1,5.43E1,6.67E1,8.572083E1,9.9E1,2.2270834E1,1.3E2,1.77E2,2.8108334E1,1.83E2,1.94E2,3.9529167E1,4.4008335E1,4.8445835E1,1.634E2,5.7304165E1,1.807E2,1.0118E3,7.965417E1,9.242083E1,1.58E1,1.12E2,6.85E1,2.3520834E1,1.27E2,1.44E2,1.66E2,1.94E2,2.50875E1,3.0166666E1,1.276E2,1.99E2,3.53375E1,2.1E2,2.05E2,1.43E2,1.369E2,5.3E0,1.634E2,1.183E2,5.2825E1,1.1812354E0,1.183E2,8.18921E-1,6.31375E1,1.073E2,1.19443445E1,6.90125E1,2.67E1,1.6429895E0,1.8814471E0,2.2186217E0,-1.7323366E0,-1.3409759E0,-1.1097287E0,-7.7512145E-1,-9.8236275E-1,-5.383768E-1,-7.42232E-1,-6.0142094E-1,-5.8236915E-1,-4.5963356E-1,-3.5909352E-1,-2.5581256E-1,-1.7320794E-1,-8.4009975E-2,2.7621195E-2,1.7730716E-1,-4.5915833E-1,-3.3844957E-1,-2.5473407E-1,-1.6683494E-1,-7.8162156E-2,3.1851828E-1,7.2656E-2,2.0667922E-1,-7.417979E-2,8.008634E-3,1.5060437E-1,3.011905E-1,7.73802E-2,3.0626047E-1,1.5844645E-1,6.502604E-1,2.376902E-1,5.3343576E-1,4.363831E-1,3.1757337E-1,4.0031788E-1,7.797295E-1,4.6355468E-1,6.529793E-1,5.5511445E-1,6.322317E-1,7.0358247E-1,8.8250536E-1,9.1425467E-1,1.0536958E0,1.5989376E0,4.2133066E-1,1.1666062E0,1.7532595E0,1.1204661E0,1.2325969E0,1.3953516E0,1.8263695E0],"split_indices":[15,15,15,5,15,15,15,15,5,5,15,15,15,15,15,5,15,5,5,15,5,5,15,15,15,1,15,1,9,15,15,15,5,1,15,5,5,5,5,15,15,1,5,15,5,5,1,1,4,1,1,15,0,1,0,15,0,16,15,6,0,0,0,0,0,0,0,0,0,0,0,0,0,0,0,0,0,0,0,0,0,0,0,0,0,0,0,0,0,0,0,0,0,0,0,0,0,0,0,0,0,0,0,0,0,0,0,0,0,0,0,0,0,0,0,0,0],"split_type":[0,0,0,0,0,0,0,0,0,0,0,0,0,0,0,0,0,0,0,0,0,0,0,0,0,0,0,0,0,0,0,0,0,0,0,0,0,0,0,0,0,0,0,0,0,0,0,0,0,0,0,0,0,0,0,0,0,0,0,0,0,0,0,0,0,0,0,0,0,0,0,0,0,0,0,0,0,0,0,0,0,0,0,0,0,0,0,0,0,0,0,0,0,0,0,0,0,0,0,0,0,0,0,0,0,0,0,0,0,0,0,0,0,0,0,0,0],"sum_hessian":[2.4327E4,1.6911E4,7.416E3,4.945E3,1.1966E4,5.039E3,2.377E3,3.548E3,1.397E3,6.357E3,5.609E3,3.04E3,1.999E3,1.52E3,8.57E2,1.684E3,1.864E3,6.66E2,7.31E2,5.68E3,6.77E2,3.136E3,2.473E3,1.997E3,1.043E3,9.51E2,1.048E3,9.51E2,5.69E2,6.65E2,1.92E2,1.47E3,2.14E2,7.94E2,1.07E3,1.41E2,5.25E2,4.54E2,2.77E2,2.518E3,3.162E3,4.03E2,2.74E2,3.009E3,1.27E2,1.233E3,1.24E3,9.5E2,1.047E3,5.67E2,4.76E2,9.43E2,8E0,5.73E2,4.75E2,9.34E2,1.7E1,9E1,4.79E2,4.75E2,1.9E2,9.6E1,9.6E1,2.98E2,1.172E3,1.26E2,8.8E1,7.75E2,1.9E1,7.14E2,3.56E2,8.9E1,5.2E1,2.86E2,2.39E2,2.06E2,2.48E2,1.95E2,8.2E1,5.88E2,1.93E3,1.391E3,1.771E3,3.97E2,6E0,1.79E2,9.5E1,1.461E3,1.548E3,8.9E1,3.8E1,1.2E3,3.3E1,1.234E3,6E0,9.4E2,1E1,8.5E1,9.62E2,5.65E2,2E0,4.56E2,2E1,5.65E2,3.78E2,5.23E2,5E1,4.66E2,4.68E2,1.6E1,1E0,5.3E1,3.7E1,2.4E2,2.39E2,4.31E2,4.4E1],"tree_param":{"num_deleted":"0","num_feature":"17","num_nodes":"117","size_leaf_vector":"1"}},{"base_weights":[2.2198635E-3,-6.0499806E0,1.4059823E1,-1.5491774E1,-1.9682312E0,9.273478E0,2.4620104E1,-1.9953953E1,-3.5560129E0,-4.4819603E0,9.373562E-1,6.5005746E0,1.31683235E1,2.0803158E1,3.0935188E1,-2.4993221E1,-1.4233118E1,-6.1128364E0,-4.1132042E-1,-4.9972296E0,5.52969E-1,-1.7299257E-1,2.6214726E0,5.524617E0,8.273319E0,1.1569984E1,1.5075183E1,1.919018E1,2.319179E1,2.8501297E1,3.9173714E1,-2.7654697E1,-2.1747374E1,-1.66418E1,-1.2061635E1,-8.236716E0,-4.843421E0,-1.5916761E0,2.0144165E0,-6.270534E0,-3.3238263E0,-6.8105143E-1,2.8514178E0,-3.6024046E-1,3.8438847E0,2.0650616E0,3.4838698E0,4.659934E0,6.225614E0,7.6595855E0,8.9867935E0,1.1365085E1,1.6941092E1,1.4306678E1,1.6184454E1,1.8986092E1,3.0123123E1,2.7095728E1,2.240335E1,2.7348345E1,1.5612702E0,1.7883444E0,2.1088343E0,-1.449409E0,-8.6732846E-1,-1.1053723E0,-4.87852E-1,-2.1920839E-1,-8.3931446E-1,-6.572558E-1,-5.421351E-1,-5.159083E-1,-3.752384E-1,-2.8362533E-1,-2.0303658E-1,-1.12437025E-1,-3.5462596E-2,6.3718796E-2,2.0114969E-1,-3.600571E-1,-2.7630398E-1,-1.947456E-1,-1.3019383E-1,-7.150047E-2,1.2955283E-2,1.1157966E-1,2.4861458E-1,-2.0890309E-2,5.177314E-1,1.4396152E-1,2.8670603E-1,9.852042E-2,3.2852504E-1,1.7007498E-1,4.7548327E-1,2.295368E-1,5.027507E-1,4.1481748E-1,3.0171117E-1,3.8033748E-1,7.537384E-1,4.404277E-1,6.218852E-1,5.253145E-1,6.1062926E-1,1.0129647E0,4.6658108E-1,7.748058E-1,6.870956E-1,8.000409E-1,1.1384642E0,8.8214415E-1,1.0011233E0,1.5588149E0,4.1079733E-1,1.1432501E0,1.7273325E0,1.0646752E0,1.1712239E0,1.3257455E0,1.7370802E0],"categories":[],"categories_nodes":[],"categories_segments":[],"categories_sizes":[],"default_left":[0,0,0,0,0,0,0,0,0,0,0,0,0,0,0,0,0,0,0,0,0,0,0,0,0,0,0,0,0,0,0,0,0,0,0,0,0,0,0,0,0,0,0,0,0,0,0,0,0,0,0,0,0,0,0,0,0,0,0,0,0,0,0,0,0,0,0,0,0,0,0,0,0,0,0,0,0,0,0,0,0,0,0,0,0,0,0,0,0,0,0,0,0,0,0,0,0,0,0,0,0,0,0,0,0,0,0,0,0,0,0,0,0,0,0,0,0,0,0,0,0],"id":3,"left_children":[1,3,5,7,9,11,13,15,17,19,21,23,25,27,29,31,33,35,37,39,41,43,45,47,49,51,53,55,57,59,61,63,65,67,69,71,73,75,77,79,81,83,85,87,89,91,93,95,97,99,101,103,105,107,109,111,113,115,117,119,-1,-1,-1,-1,-1,-1,-1,-1,-1,-1,-1,-1,-1,-1,-1,-1,-1,-1,-1,-1,-1,-1,-1,-1,-1,-1,-1,-1,-1,-1,-1,-1,-1,-1,-1,-1,-1,-1,-1,-1,-1,-1,-1,-1,-1,-1,-1,-1,-1,-1,-1,-1,-1,-1,-1,-1,-1,-1,-1,-1,-1],"loss_changes":[2.0698974E6,6.554028E5,3.6986325E5,2.7331012E5,8.673753E4,5.4346562E4,5.43865E4,1.07348875E5,1.1237998E4,1.6520953E4,1.0302044E4,5.0512344E3,6.21075E3,5.049125E3,1.60878125E4,1.6546375E4,8.9629375E3,2.0387891E3,1.8013162E3,1.2286375E4,1.681051E3,2.4992808E3,1.0431904E3,1.1244727E3,3.883125E2,1.0665E3,5.8E2,1.3402812E3,1.1474375E3,1.2378125E3,4.6596875E2,1.443875E4,3.6655938E3,1.392875E3,1.079125E3,3.598125E2,2.9169043E2,2.4366455E2,3.0107745E2,2.2318906E3,1.01691797E3,2.7216785E2,2.610199E2,1.9620784E3,2.5335693E2,5.5551807E2,3.9302246E2,2.7341016E2,3.6528125E2,1.0786719E2,1.8383984E2,6.759375E2,8.2093945E2,1.70625E2,9.758594E1,8.2165625E2,6.686621E1,2.078664E3,4.5171875E1,2.011875E3,0E0,0E0,0E0,0E0,0E0,0E0,0E0,0E0,0E0,0E0,0E0,0E0,0E0,0E0,0E0,0E0,0E0,0E0,0E0,0E0,0E0,0E0,0E0,0E0,0E0,0E0,0E0,0E0,0E0,0E0,0E0,0E0,0E0,0E0,0E0,0E0,0E0,0E0,0E0,0E0,0E0,0E0,0E0,0E0,0E0,0E0,0E0,0E0,0E0,0E0,0E0,0E0,0E0,0E0,0E0,0E0,0E0,0E0,0E0,0E0,0E0],"parents":[2147483647,0,0,1,1,2,2,3,3,4,4,5,5,6,6,7,7,8,8,9,9,10,10,11,11,12,12,13,13,14,14,15,15,16,16,17,17,18,18,19,19,20,20,21,21,22,22,23,23,24,24,25,25,26,26,27,27,28,28,29,29,30,30,31,31,32,32,33,33,34,34,35,35,36,36,37,37,38,38,39,39,40,40,41,41,42,42,43,43,44,44,45,45,46,46,47,47,48,48,49,49,50,50,51,51,52,52,53,53,54,54,55,55,56,56,57,57,58,58,59,59],"right_children":[2,4,6,8,10,12,14,16,18,20,22,24,26,28,30,32,34,36,38,40,42,44,46,48,50,52,54,56,58,60,62,64,66,68,70,72,74,76,78,80,82,84,86,88,90,92,94,96,98,100,102,104,106,108,110,112,114,116,118,120,-1,-1,-1,-1,-1,-1,-1,-1,-1,-1,-1,-1,-1,-1,-1,-1,-1,-1,-1,-1,-1,-1,-1,-1,-1,-1,-1,-1,-1,-1,-1,-1,-1,-1,-1,-1,-1,-1,-1,-1,-1,-1,-1,-1,-1,-1,-1,-1,-1,-1,-1,-1,-1,-1,-1,-1,-1,-1,-1,-1,-1],"split_conditions":[4.2183334E1,2.4429167E1,6.0729168E1,1.24E2,3.3475E1,5.0441666E1,7.2441666E1,2.1266666E1,1.61E2,1.66E2,3.8075E1,4.66E1,5.5166668E1,6.67E1,8.572083E1,1.8804167E1,2.2808332E1,1.39E2,1.83E2,2.94E1,1.88E2,1.94E2,4.0425E1,4.4008335E1,4.8445835E1,1.318E2,5.8570835E1,1.807E2,1.0118E3,7.965417E1,9.242083E1,1.03E2,1.042E2,2.4576375E0,2.3666666E1,1.28E2,1.5E2,1.72E2,1.99E2,2.6675E1,3.1504168E1,1.77E2,2.05E2,1.509E2,2.1E2,2.1E2,1.215E2,1.369E2,5.3E0,1.634E2,1.183E2,5.2825E1,1.2006498E1,1.009E3,1.807E2,6.31375E1,1.073E2,1.0005E3,6.90125E1,2.67E1,1.5612702E0,1.7883444E0,2.1088343E0,-1.449409E0,-8.6732846E-1,-1.1053723E0,-4.87852E-1,-2.1920839E-1,-8.3931446E-1,-6.572558E-1,-5.421351E-1,-5.159083E-1,-3.752384E-1,-2.8362533E-1,-2.0303658E-1,-1.12437025E-1,-3.5462596E-2,6.3718796E-2,2.0114969E-1,-3.600571E-1,-2.7630398E-1,-1.947456E-1,-1.3019383E-1,-7.150047E-2,1.2955283E-2,1.1157966E-1,2.4861458E-1,-2.0890309E-2,5.177314E-1,1.4396152E-1,2.8670603E-1,9.852042E-2,3.2852504E-1,1.7007498E-1,4.7548327E-1,2.295368E-1,5.027507E-1,4.1481748E-1,3.0171117E-1,3.8033748E-1,7.537384E-1,4.404277E-1,6.218852E-1,5.253145E-1,6.1062926E-1,1.0129647E0,4.6658108E-1,7.748058E-1,6.870956E-1,8.000409E-1,1.1384642E0,8.8214415E-1,1.0011233E0,1.5588149E0,4.1079733E-1,1.1432501E0,1.7273325E0,1.0646752E0,1.1712239E0,1.3257455E0,1.7370802E0],"split_indices":[15,15,15,5,15,15,15,15,5,5,15,15,15,15,15,15,15,5,5,15,5,5,15,15,15,1,15,1,9,15,15,5,3,16,15,5,5,5,5,15,15,5,5,1,5,5,1,1,4,1,1,15,14,9,1,15,0,9,15,6,0,0,0,0,0,0,0,0,0,0,0,0,0,0,0,0,0,0,0,0,0,0,0,0,0,0,0,0,0,0,0,0,0,0,0,0,0,0,0,0,0,0,0,0,0,0,0,0,0,0,0,0,0,0,0,0,0,0,0,0,0],"split_type":[0,0,0,0,0,0,0,0,0,0,0,0,0,0,0,0,0,0,0,0,0,0,0,0,0,0,0,0,0,0,0,0,0,0,0,0,0,0,0,0,0,0,0,0,0,0,0,0,0,0,0,0,0,0,0,0,0,0,0,0,0,0,0,0,0,0,0,0,0,0,0,0,0,0,0,0,0,0,0,0,0,0,0,0,0,0,0,0,0,0,0,0,0,0,0,0,0,0,0,0,0,0,0,0,0,0,0,0,0,0,0,0,0,0,0,0,0,0,0,0,0],"sum_hessian":[2.4327E4,1.7006E4,7.321E3,5.132E3,1.1874E4,5.039E3,2.282E3,3.735E3,1.397E3,6.366E3,5.508E3,2.945E3,2.094E3,1.425E3,8.57E2,1.984E3,1.751E3,7.7E2,6.27E2,5.775E3,5.91E2,3.32E3,2.188E3,1.902E3,1.043E3,1.143E3,9.51E2,8.56E2,5.69E2,6.65E2,1.92E2,1.086E3,8.98E2,8.27E2,9.24E2,2.86E2,4.84E2,4.22E2,2.05E2,3.278E3,2.497E3,3.85E2,2.06E2,3.173E3,1.47E2,1.332E3,8.56E2,8.55E2,1.047E3,5.67E2,4.76E2,1.104E3,3.9E1,5.7E2,3.81E2,8.43E2,1.3E1,9E1,4.79E2,4.75E2,1.9E2,9.6E1,9.6E1,9.6E2,1.26E2,8.71E2,2.7E1,1E1,8.17E2,4.84E2,4.4E2,7.1E1,2.15E2,2.32E2,2.52E2,2.41E2,1.81E2,1.51E2,5.4E1,1.453E3,1.825E3,1.39E3,1.107E3,2.14E2,1.71E2,1.61E2,4.5E1,3.157E3,1.6E1,9.9E1,4.8E1,1.306E3,2.6E1,8.46E2,1E1,8.46E2,9E0,8.5E1,9.62E2,5.65E2,2E0,4.56E2,2E1,5.55E2,5.49E2,2.6E1,1.3E1,1.75E2,3.95E2,3.74E2,7E0,3.75E2,4.68E2,1.2E1,1E0,6E1,3E1,2.4E2,2.39E2,4.31E2,4.4E1],"tree_param":{"num_deleted":"0","num_feature":"17","num_nodes":"121","size_leaf_vector":"1"}},{"base_weights":[2.9744052E-3,-5.963397E0,1.2878223E1,-1.5087054E1,-2.2074575E0,8.313171E0,2.3099064E1,-1.9619215E1,-3.5903997E0,-4.8499355E0,2.6642787E-1,5.7895956E0,1.2209709E1,1.9530426E1,2.939836E1,-2.5128214E1,-1.5246751E1,-6.5292153E0,-9.0444624E-1,-5.429725E0,4.5992985E-2,-1.3383473E0,1.4428519E0,4.393958E0,7.023983E0,1.0406046E1,1.3705485E1,1.8006638E1,2.2041159E1,2.7083176E1,3.723522E1,-2.6181395E1,-1.7702433E1,-1.7924864E1,-1.27035E1,-9.166984E0,-5.439719E0,-2.2516627E0,1.3128709E0,-6.991756E0,-4.2541866E0,-1.2525761E0,2.1046388E0,-1.587531E0,2.5607681E0,7.3449874E-1,2.4743824E0,4.3209476E0,1.1436156E1,6.375498E0,8.035823E0,1.0217615E1,1.5862863E1,1.2578833E1,1.4490141E1,1.7787703E1,2.8378735E1,1.0631675E0,2.566009E1,2.5987362E1,1.4836153E0,1.699849E0,2.0044796E0,-1.33543E0,-4.9989468E-1,-1.0117356E0,-6.920501E-1,-9.6143275E-1,-8.201767E-1,-7.181686E-1,-5.978395E-1,-5.130277E-1,-3.9053398E-1,-3.1286797E-1,-2.3184755E-1,-1.5630612E-1,-7.556646E-2,2.4951624E-2,1.6128805E-1,-4.5377526E-1,-3.2446495E-1,-2.5033173E-1,-1.7852016E-1,-6.95576E-2,3.0760562E-1,6.628565E-2,1.885444E-1,-1.0184827E-1,-4.0904872E-2,7.098451E-2,2.0191538E-1,3.401466E-2,5.441503E-1,7.465259E-1,1.21447004E-1,1.9386603E-1,2.523756E-1,2.4159847E-1,8.3054125E-1,3.1655195E-1,7.2005975E-1,3.9902672E-1,6.3937384E-1,4.5898056E-1,5.320526E-1,9.6269673E-1,4.1275984E-1,6.1028194E-1,7.8260964E-1,7.7888346E-1,6.993274E-1,8.1072867E-1,9.394598E-1,1.4552828E0,4.005274E-1,1.0516298E0,1.5437307E0,1.2596115E0,1.6521562E0],"categories":[],"categories_nodes":[],"categories_segments":[],"categories_sizes":[],"default_left":[0,0,0,0,0,0,0,0,0,0,0,0,0,0,0,0,0,0,0,0,0,0,0,0,0,0,0,0,0,0,0,0,0,0,0,0,0,0,0,0,0,0,0,0,0,0,0,0,0,0,0,0,0,0,0,0,0,0,0,0,0,0,0,0,0,0,0,0,0,0,0,0,0,0,0,0,0,0,0,0,0,0,0,0,0,0,0,0,0,0,0,0,0,0,0,0,0,0,0,0,0,0,0,0,0,0,0,0,0,0,0,0,0,0,0,0,0,0,0],"id":4,"left_children":[1,3,5,7,9,11,13,15,17,19,21,23,25,27,29,31,33,35,37,39,41,43,45,47,49,51,53,55,57,59,61,63,65,67,69,71,73,75,77,79,81,83,85,87,89,91,93,95,97,99,101,103,105,107,109,111,113,-1,115,117,-1,-1,-1,-1,-1,-1,-1,-1,-1,-1,-1,-1,-1,-1,-1,-1,-1,-1,-1,-1,-1,-1,-1,-1,-1,-1,-1,-1,-1,-1,-1,-1,-1,-1,-1,-1,-1,-1,-1,-1,-1,-1,-1,-1,-1,-1,-1,-1,-1,-1,-1,-1,-1,-1,-1,-1,-1,-1,-1],"loss_changes":[1.8689175E6,5.6967056E5,3.5926638E5,2.5253312E5,7.699628E4,5.2310812E4,5.2883E4,8.3370375E4,1.0824008E4,1.6166141E4,1.1487891E4,5.54225E3,5.5040625E3,5.4221875E3,1.45589375E4,1.1556875E4,1.2992656E4,1.832498E3,2.1477703E3,9.320328E3,1.6173055E3,2.5049536E3,2.5636284E3,7.3261523E2,1.0740938E3,8.178281E2,8.2640625E2,1.657E3,1.0588125E3,1.1184688E3,4.21E2,1.12E4,1.6169023E3,1.5550312E3,1.0664688E3,2.0166992E2,2.7685547E2,2.8465942E2,4.2183527E2,2.228789E3,1.4783203E3,3.8924615E2,2.987058E2,8.351929E2,2.5559503E2,1.1384658E3,7.725957E2,4.6617188E2,4.3235413E2,2.8348047E2,7.291016E1,3.084375E2,6.14999E2,3.5489844E2,1.46875E2,1.1684375E3,3.3356445E1,0E0,1.6671211E3,1.8380625E3,0E0,0E0,0E0,0E0,0E0,0E0,0E0,0E0,0E0,0E0,0E0,0E0,0E0,0E0,0E0,0E0,0E0,0E0,0E0,0E0,0E0,0E0,0E0,0E0,0E0,0E0,0E0,0E0,0E0,0E0,0E0,0E0,0E0,0E0,0E0,0E0,0E0,0E0,0E0,0E0,0E0,0E0,0E0,0E0,0E0,0E0,0E0,0E0,0E0,0E0,0E0,0E0,0E0,0E0,0E0,0E0,0E0,0E0,0E0],"parents":[2147483647,0,0,1,1,2,2,3,3,4,4,5,5,6,6,7,7,8,8,9,9,10,10,11,11,12,12,13,13,14,14,15,15,16,16,17,17,18,18,19,19,20,20,21,21,22,22,23,23,24,24,25,25,26,26,27,27,28,28,29,29,30,30,31,31,32,32,33,33,34,34,35,35,36,36,37,37,38,38,39,39,40,40,41,41,42,42,43,43,44,44,45,45,46,46,47,47,48,48,49,49,50,50,51,51,52,52,53,53,54,54,55,55,56,56,58,58,59,59],"right_children":[2,4,6,8,10,12,14,16,18,20,22,24,26,28,30,32,34,36,38,40,42,44,46,48,50,52,54,56,58,60,62,64,66,68,70,72,74,76,78,80,82,84,86,88,90,92,94,96,98,100,102,104,106,108,110,112,114,-1,116,118,-1,-1,-1,-1,-1,-1,-1,-1,-1,-1,-1,-1,-1,-1,-1,-1,-1,-1,-1,-1,-1,-1,-1,-1,-1,-1,-1,-1,-1,-1,-1,-1,-1,-1,-1,-1,-1,-1,-1,-1,-1,-1,-1,-1,-1,-1,-1,-1,-1,-1,-1,-1,-1,-1,-1,-1,-1,-1,-1],"split_conditions":[4.1404167E1,2.4020834E1,6.0195835E1,1.22E2,3.1933332E1,4.9925E1,7.2441666E1,2.0275E1,1.55E2,1.6E2,3.575E1,4.4679165E1,5.38375E1,6.67E1,8.572083E1,9.9E1,2.2270834E1,1.33E2,1.77E2,2.7479166E1,1.83E2,1.83E2,3.8670834E1,1.369E2,4.75375E1,1.318E2,5.615E1,1.807E2,2.25E1,7.965417E1,9.242083E1,9.8E1,1.12E2,2.1379168E1,2.2808332E1,1.28E2,1.44E2,1.66E2,1.94E2,2.4695833E1,2.9508333E1,1.276E2,1.99E2,3.43875E1,1.99E2,1.807E2,1.6E1,4.3345833E1,1.0093E3,1.634E2,1.43E2,5.1241665E1,8.38E1,1.157E2,1.009E3,6.25625E1,1.073E2,1.0631675E0,1.19443445E1,2.67E1,1.4836153E0,1.699849E0,2.0044796E0,-1.33543E0,-4.9989468E-1,-1.0117356E0,-6.920501E-1,-9.6143275E-1,-8.201767E-1,-7.181686E-1,-5.978395E-1,-5.130277E-1,-3.9053398E-1,-3.1286797E-1,-2.3184755E-1,-1.5630612E-1,-7.556646E-2,2.4951624E-2,1.6128805E-1,-4.5377526E-1,-3.2446495E-1,-2.5033173E-1,-1.7852016E-1,-6.95576E-2,3.0760562E-1,6.628565E-2,1.885444E-1,-1.0184827E-1,-4.0904872E-2,7.098451E-2,2.0191538E-1,3.401466E-2,5.441503E-1,7.465259E-1,1.21447004E-1,1.9386603E-1,2.523756E-1,2.4159847E-1,8.3054125E-1,3.1655195E-1,7.2005975E-1,3.9902672E-1,6.3937384E-1,4.5898056E-1,5.320526E-1,9.6269673E-1,4.1275984E-1,6.1028194E-1,7.8260964E-1,7.7888346E-1,6.993274E-1,8.1072867E-1,9.394598E-1,1.4552828E0,4.005274E-1,1.0516298E0,1.5437307E0,1.2596115E0,1.6521562E0],"split_indices":[15,15,15,5,15,15,15,15,5,5,15,15,15,15,15,5,15,5,5,15,5,5,15,1,15,1,15,1,6,15,15,3,5,15,15,5,5,5,5,15,15,1,5,15,5,1,7,15,9,1,1,15,0,1,9,15,0,0,16,6,0,0,0,0,0,0,0,0,0,0,0,0,0,0,0,0,0,0,0,0,0,0,0,0,0,0,0,0,0,0,0,0,0,0,0,0,0,0,0,0,0,0,0,0,0,0,0,0,0,0,0,0,0,0,0,0,0,0,0],"split_type":[0,0,0,0,0,0,0,0,0,0,0,0,0,0,0,0,0,0,0,0,0,0,0,0,0,0,0,0,0,0,0,0,0,0,0,0,0,0,0,0,0,0,0,0,0,0,0,0,0,0,0,0,0,0,0,0,0,0,0,0,0,0,0,0,0,0,0,0,0,0,0,0,0,0,0,0,0,0,0,0,0,0,0,0,0,0,0,0,0,0,0,0,0,0,0,0,0,0,0,0,0,0,0,0,0,0,0,0,0,0,0,0,0,0,0,0,0,0,0],"sum_hessian":[2.4327E4,1.6624E4,7.703E3,4.847E3,1.1777E4,5.326E3,2.377E3,3.476E3,1.371E3,5.694E3,6.083E3,3.234E3,2.092E3,1.52E3,8.57E2,1.536E3,1.94E3,6.54E2,7.17E2,5.091E3,6.03E2,2.573E3,3.51E3,1.52E3,1.714E3,9.52E2,1.14E3,9.51E2,5.69E2,6.65E2,1.92E2,1.343E3,1.93E2,9.42E2,9.98E2,1.89E2,4.65E2,4.46E2,2.71E2,2.184E3,2.907E3,3.7E2,2.33E2,2.419E3,1.54E2,2.082E3,1.428E3,1.506E3,1.4E1,1.049E3,6.65E2,9.23E2,2.9E1,4.75E2,6.65E2,9.34E2,1.7E1,4.74E2,9.5E1,4.75E2,1.9E2,9.6E1,9.6E1,1.3E3,4.3E1,1.14E2,7.9E1,5.01E2,4.41E2,3.04E2,6.94E2,1.01E2,8.8E1,2.27E2,2.38E2,2.03E2,2.43E2,1.91E2,8E1,4.21E2,1.763E3,1.381E3,1.526E3,3.64E2,6E0,1.6E2,7.3E1,1.526E3,8.93E2,8.8E1,6.6E1,2.072E3,1E1,4E0,1.424E3,9.39E2,5.67E2,7E0,7E0,1.045E3,4E0,6.6E2,5E0,2.74E2,6.49E2,1.9E1,1E1,4.28E2,4.7E1,2.01E2,4.64E2,3.7E2,5.64E2,1.6E1,1E0,5.3E1,4.2E1,4.31E2,4.4E1],"tree_param":{"num_deleted":"0","num_feature":"17","num_nodes":"119","size_leaf_vector":"1"}},{"base_weights":[3.521481E-3,-5.4612236E0,1.2696628E1,-1.3985235E1,-1.7762375E0,8.3733E0,2.2235338E1,-1.8089903E1,-3.394887E0,-4.0460925E0,8.474586E-1,5.8707094E0,1.1888457E1,1.8788622E1,2.7937881E1,-2.269744E1,-1.2872468E1,-6.193809E0,-8.4454453E-1,-4.512325E0,5.096587E-1,-3.9199987E-1,2.0839133E0,4.9862123E0,7.477345E0,1.0444979E1,1.361057E1,1.75205E1,2.1282726E1,2.5735617E1,3.539265E1,-2.5201424E1,-1.9650274E1,-1.5056888E1,-1.0902697E1,-8.667638E0,-5.146382E0,-2.1337337E0,1.2634833E0,-5.6594853E0,-3.004698E0,-6.0474896E-1,2.585271E0,-4.6243197E-1,1.0331546E1,1.3774308E0,2.8348422E0,4.2119718E0,5.613849E0,7.0118847E0,8.265625E0,1.0256913E1,1.5379164E1,1.2904435E1,1.4630445E1,1.9876827E1,1.687052E1,2.101275E1,3.444965E1,2.5377256E1,3.3580753E1,1.6157326E0,1.9052889E0,-1.3173608E0,-8.552561E-1,-9.9929047E-1,-4.3033835E-1,-1.7474566E-1,-7.5975716E-1,-5.951376E-1,-4.8909268E-1,-4.855822E-1,-3.6824134E-1,-2.967684E-1,-2.1778564E-1,-1.4702171E-1,-7.198821E-2,2.4187928E-2,1.5508059E-1,-3.2338783E-1,-2.4743615E-1,-1.7597328E-1,-1.1778698E-1,-3.466908E-2,3.143866E-1,1.007052E-1,2.2702849E-1,-3.255354E-2,1.4934018E-1,7.2865194E-1,7.922401E-2,6.2916666E-2,2.5407287E-1,1.3897526E-1,5.8366585E-1,2.0740047E-1,4.604206E-1,3.793832E-1,2.715875E-1,3.48451E-1,7.059565E-1,4.0484425E-1,5.614044E-1,4.7375688E-1,5.514284E-1,9.218602E-1,4.1915008E-1,6.998982E-1,6.1929184E-1,7.230298E-1,1.0381674E0,8.4334844E-1,1.7298708E0,7.942788E-1,9.068243E-1,1.0437086E0,1.7790467E0,1.8333119E0,4.733389E-1,1.1816096E0,1.3799708E0,2.4758196E0,1.1115756E0],"categories":[],"categories_nodes":[],"categories_segments":[],"categories_sizes":[],"default_left":[0,0,0,0,0,0,0,0,0,0,0,0,0,0,0,0,0,0,0,0,0,0,0,0,0,0,0,0,0,0,0,0,0,0,0,0,0,0,0,0,0,0,0,0,0,0,0,0,0,0,0,0,0,0,0,0,0,0,0,0,0,0,0,0,0,0,0,0,0,0,0,0,0,0,0,0,0,0,0,0,0,0,0,0,0,0,0,0,0,0,0,0,0,0,0,0,0,0,0,0,0,0,0,0,0,0,0,0,0,0,0,0,0,0,0,0,0,0,0,0,0,0,0],"id":5,"left_children":[1,3,5,7,9,11,13,15,17,19,21,23,25,27,29,31,33,35,37,39,41,43,45,47,49,51,53,55,57,59,61,63,65,67,69,71,73,75,77,79,81,83,85,87,89,91,93,95,97,99,101,103,105,107,109,111,113,115,117,119,121,-1,-1,-1,-1,-1,-1,-1,-1,-1,-1,-1,-1,-1,-1,-1,-1,-1,-1,-1,-1,-1,-1,-1,-1,-1,-1,-1,-1,-1,-1,-1,-1,-1,-1,-1,-1,-1,-1,-1,-1,-1,-1,-1,-1,-1,-1,-1,-1,-1,-1,-1,-1,-1,-1,-1,-1,-1,-1,-1,-1,-1,-1],"loss_changes":[1.687571E6,5.341798E5,3.0176562E5,2.2306938E5,7.072391E4,4.4267062E4,4.43475E4,8.863E4,1.0238098E4,1.3526055E4,8.443549E3,4.149172E3,5.0656875E3,4.1373125E3,1.31753125E4,1.44825625E4,7.3098125E3,1.7277461E3,2.0463665E3,9.972523E3,1.3709056E3,2.0833135E3,1.4592646E3,9.0110156E2,3.2510547E2,9.0383594E2,4.9679688E2,1.1212188E3,9.681719E2,1.0201875E3,3.8035938E2,9.5124375E3,3.125875E3,1.2592812E3,9.114375E2,2.0322363E2,2.754541E2,2.5720508E2,4.084045E2,1.85175E3,8.261992E2,2.4016666E2,2.2203284E2,1.7814983E3,6.447201E2,6.2134863E2,6.209824E2,2.3536914E2,3.3546875E2,1.0358594E2,1.0004492E2,5.6210156E2,7.0122266E2,1.5044531E2,9.766406E1,8.277828E3,6.495625E2,2.0414062E2,9.590234E1,1.8334688E3,3.6014688E3,0E0,0E0,0E0,0E0,0E0,0E0,0E0,0E0,0E0,0E0,0E0,0E0,0E0,0E0,0E0,0E0,0E0,0E0,0E0,0E0,0E0,0E0,0E0,0E0,0E0,0E0,0E0,0E0,0E0,0E0,0E0,0E0,0E0,0E0,0E0,0E0,0E0,0E0,0E0,0E0,0E0,0E0,0E0,0E0,0E0,0E0,0E0,0E0,0E0,0E0,0E0,0E0,0E0,0E0,0E0,0E0,0E0,0E0,0E0,0E0,0E0,0E0],"parents":[2147483647,0,0,1,1,2,2,3,3,4,4,5,5,6,6,7,7,8,8,9,9,10,10,11,11,12,12,13,13,14,14,15,15,16,16,17,17,18,18,19,19,20,20,21,21,22,22,23,23,24,24,25,25,26,26,27,27,28,28,29,29,30,30,31,31,32,32,33,33,34,34,35,35,36,36,37,37,38,38,39,39,40,40,41,41,42,42,43,43,44,44,45,45,46,46,47,47,48,48,49,49,50,50,51,51,52,52,53,53,54,54,55,55,56,56,57,57,58,58,59,59,60,60],"right_children":[2,4,6,8,10,12,14,16,18,20,22,24,26,28,30,32,34,36,38,40,42,44,46,48,50,52,54,56,58,60,62,64,66,68,70,72,74,76,78,80,82,84,86,88,90,92,94,96,98,100,102,104,106,108,110,112,114,116,118,120,122,-1,-1,-1,-1,-1,-1,-1,-1,-1,-1,-1,-1,-1,-1,-1,-1,-1,-1,-1,-1,-1,-1,-1,-1,-1,-1,-1,-1,-1,-1,-1,-1,-1,-1,-1,-1,-1,-1,-1,-1,-1,-1,-1,-1,-1,-1,-1,-1,-1,-1,-1,-1,-1,-1,-1,-1,-1,-1,-1,-1,-1,-1],"split_conditions":[4.2183334E1,2.4429167E1,6.0729168E1,1.22E2,3.3475E1,5.0441666E1,7.2441666E1,2.1266666E1,1.55E2,1.66E2,3.7170834E1,4.66E1,5.5166668E1,6.7541664E1,8.572083E1,1.8804167E1,2.2808332E1,1.33E2,1.77E2,2.94E1,1.88E2,1.509E2,3.9529167E1,4.4008335E1,4.8754166E1,1.318E2,5.8570835E1,1.01E3,1.807E2,2.94E1,9.242083E1,1E2,1.042E2,2.4576375E0,2.3666666E1,1.28E2,1.44E2,1.66E2,1.94E2,2.6808332E1,3.1504168E1,4.7633335E1,2.05E2,1.88E2,1.06502695E1,1.99E2,1.43E2,1.369E2,5.3E0,1.634E2,1.183E2,5.2825E1,1.2006498E1,1.009E3,1.807E2,1.0036E3,6.463333E1,1.99E1,9.27E1,7.7191666E1,4.5E1,1.6157326E0,1.9052889E0,-1.3173608E0,-8.552561E-1,-9.9929047E-1,-4.3033835E-1,-1.7474566E-1,-7.5975716E-1,-5.951376E-1,-4.8909268E-1,-4.855822E-1,-3.6824134E-1,-2.967684E-1,-2.1778564E-1,-1.4702171E-1,-7.198821E-2,2.4187928E-2,1.5508059E-1,-3.2338783E-1,-2.4743615E-1,-1.7597328E-1,-1.1778698E-1,-3.466908E-2,3.143866E-1,1.007052E-1,2.2702849E-1,-3.255354E-2,1.4934018E-1,7.2865194E-1,7.922401E-2,6.2916666E-2,2.5407287E-1,1.3897526E-1,5.8366585E-1,2.0740047E-1,4.604206E-1,3.793832E-1,2.715875E-1,3.48451E-1,7.059565E-1,4.0484425E-1,5.614044E-1,4.7375688E-1,5.514284E-1,9.218602E-1,4.1915008E-1,6.998982E-1,6.1929184E-1,7.230298E-1,1.0381674E0,8.4334844E-1,1.7298708E0,7.942788E-1,9.068243E-1,1.0437086E0,1.7790467E0,1.8333119E0,4.733389E-1,1.1816096E0,1.3799708E0,2.4758196E0,1.1115756E0],"split_indices":[15,15,15,5,15,15,15,15,5,5,15,15,15,15,15,15,15,5,5,15,5,1,15,15,15,1,15,9,1,6,15,5,3,16,15,5,5,5,5,15,15,11,5,5,16,5,1,1,4,1,1,15,14,9,1,9,15,8,0,15,7,0,0,0,0,0,0,0,0,0,0,0,0,0,0,0,0,0,0,0,0,0,0,0,0,0,0,0,0,0,0,0,0,0,0,0,0,0,0,0,0,0,0,0,0,0,0,0,0,0,0,0,0,0,0,0,0,0,0,0,0,0,0],"split_type":[0,0,0,0,0,0,0,0,0,0,0,0,0,0,0,0,0,0,0,0,0,0,0,0,0,0,0,0,0,0,0,0,0,0,0,0,0,0,0,0,0,0,0,0,0,0,0,0,0,0,0,0,0,0,0,0,0,0,0,0,0,0,0,0,0,0,0,0,0,0,0,0,0,0,0,0,0,0,0,0,0,0,0,0,0,0,0,0,0,0,0,0,0,0,0,0,0,0,0,0,0,0,0,0,0,0,0,0,0,0,0,0,0,0,0,0,0,0,0,0,0,0,0],"sum_hessian":[2.4327E4,1.7006E4,7.321E3,5.132E3,1.1874E4,5.039E3,2.282E3,3.698E3,1.434E3,6.366E3,5.508E3,2.945E3,2.094E3,1.425E3,8.57E2,1.962E3,1.736E3,6.83E2,7.51E2,5.775E3,5.91E2,2.751E3,2.757E3,1.902E3,1.043E3,1.143E3,9.51E2,9.5E2,4.75E2,6.65E2,1.92E2,1.073E3,8.89E2,8.2E2,9.16E2,2.01E2,4.82E2,4.66E2,2.85E2,3.278E3,2.497E3,3.85E2,2.06E2,2.734E3,1.7E1,1.422E3,1.335E3,8.55E2,1.047E3,6.62E2,3.81E2,1.104E3,3.9E1,5.7E2,3.81E2,1.99E2,7.51E2,4.68E2,7E0,6.4E2,2.5E1,9.6E1,9.6E1,9.38E2,1.35E2,8.62E2,2.7E1,1E1,8.1E2,4.79E2,4.37E2,1.08E2,9.3E1,2.38E2,2.44E2,2.14E2,2.52E2,2.01E2,8.4E1,1.53E3,1.748E3,1.39E3,1.107E3,3.81E2,4E0,1.61E2,4.5E1,2.593E3,1.41E2,1.1E1,6E0,1.379E3,4.3E1,1.328E3,7E0,8.46E2,9E0,8.5E1,9.62E2,6.6E2,2E0,3.64E2,1.7E1,5.55E2,5.49E2,2.6E1,1.3E1,1.75E2,3.95E2,3.74E2,7E0,1.67E2,3.2E1,4.3E2,3.21E2,4.66E2,2E0,6E0,1E0,3.65E2,2.75E2,9E0,1.6E1],"tree_param":{"num_deleted":"0","num_feature":"17","num_nodes":"123","size_leaf_vector":"1"}},{"base_weights":[4.271607E-3,-5.5301037E0,1.1323796E1,-1.3620169E1,-2.1170552E0,7.0418043E0,2.0339548E1,-1.7737007E1,-3.3033593E0,-4.3774924E0,1.0320813E-1,4.8896623E0,1.0466415E1,1.6941442E1,2.609463E1,-2.2747473E1,-1.3763486E1,-5.9748044E0,-8.1706804E-1,-4.9365997E0,-1.768204E-1,-1.219373E0,1.1584532E0,3.8211005E0,6.152742E0,8.991177E0,1.1933051E1,1.475767E1,1.8466042E1,2.414641E1,3.3641262E1,-2.3660454E1,-1.6099638E1,-1.6197292E1,-1.1452702E1,-8.394487E0,-4.9131074E0,-1.7689607E0,1.7450284E0,-6.390071E0,-3.8495789E0,-1.2980311E0,1.9178202E0,-1.4463395E0,2.3321004E0,5.6851804E-1,1.9008446E0,3.7516658E0,1.0154159E1,5.5375423E0,6.7638927E0,8.894341E0,9.580216E-1,1.16207E1,1.4119004E1,2.455533E1,1.4602411E1,1.770061E1,2.1777964E1,2.3756107E1,3.134678E1,1.5357789E0,1.8110065E0,-1.482098E0,-1.1160007E0,-9.1626495E-1,-6.211639E-1,-8.19612E-1,-4.036872E-1,-6.0349417E-1,-4.93145E-1,-4.7586346E-1,-3.6002067E-1,-2.825199E-1,-2.0945969E-1,-1.4121436E-1,-5.4638755E-2,5.545196E-2,1.7363356E-1,-3.97129E-1,-2.904873E-1,-2.2630806E-1,-1.6150959E-1,-7.0465416E-2,2.8694484E-1,4.523423E-2,1.4973381E-1,-9.272964E-2,-3.7370156E-2,6.427341E-2,1.8437979E-1,2.1524224E-2,2.214371E-1,9.107292E-2,3.055768E-1,1.662624E-1,2.2377072E-1,1.9290657E-1,8.360532E-1,4.5491204E-1,2.699978E-1,3.3638608E-1,6.824247E-1,4.0785915E-1,4.746152E-1,5.443198E-1,6.257748E-1,9.2119706E-1,5.749959E-1,1.3751911E0,4.7452036E-1,7.220948E-1,1.1053451E0,8.376444E-1,9.515094E-1,9.039508E-1,1.4624666E0,1.1096439E0,1.311222E0,1.0593357E0,2.384627E0],"categories":[],"categories_nodes":[],"categories_segments":[],"categories_sizes":[],"default_left":[0,0,0,0,0,0,0,0,0,0,0,0,0,0,0,0,0,0,0,0,0,0,0,0,0,0,0,0,0,0,0,0,0,0,0,0,0,0,0,0,0,0,0,0,0,0,0,0,0,0,0,0,0,0,0,0,0,0,0,0,0,0,0,0,0,0,0,0,0,0,0,0,0,0,0,0,0,0,0,0,0,0,0,0,0,0,0,0,0,0,0,0,0,0,0,0,0,0,0,0,0,0,0,0,0,0,0,0,0,0,0,0,0,0,0,0,0,0,0,0,0],"id":6,"left_children":[1,3,5,7,9,11,13,15,17,19,21,23,25,27,29,31,33,35,37,39,41,43,45,47,49,51,53,55,57,59,61,63,65,67,69,71,73,75,77,79,81,83,85,87,89,91,93,95,97,99,101,103,-1,105,107,109,111,113,115,117,119,-1,-1,-1,-1,-1,-1,-1,-1,-1,-1,-1,-1,-1,-1,-1,-1,-1,-1,-1,-1,-1,-1,-1,-1,-1,-1,-1,-1,-1,-1,-1,-1,-1,-1,-1,-1,-1,-1,-1,-1,-1,-1,-1,-1,-1,-1,-1,-1,-1,-1,-1,-1,-1,-1,-1,-1,-1,-1,-1,-1],"loss_changes":[1.5241265E6,4.511477E5,3.082752E5,2.0584869E5,5.7681137E4,3.9880875E4,4.9856875E4,6.8672375E4,9.187635E3,1.3374555E4,8.0947705E3,4.4695625E3,4.4147188E3,5.1210938E3,1.31991875E4,8.9111875E3,1.06969375E4,1.6722578E3,1.7541746E3,7.916242E3,1.5760067E3,2.0781858E3,1.4117876E3,7.5606445E2,5.3553906E2,8.596172E2,5.494375E2,6.621406E2,2.0228125E3,1.3939688E3,3.4365625E2,1.0114375E4,1.3106211E3,1.3563125E3,8.5822656E2,2.0229004E2,2.250498E2,3.7083826E2,2.1040729E2,1.8900234E3,1.1914492E3,3.5028058E2,2.5258502E2,6.8914404E2,2.1515906E2,9.566735E2,4.6620654E2,5.369297E2,7.210509E2,3.2564648E2,9.743359E1,3.801172E2,0E0,4.682422E2,1.2087754E3,1.3874756E2,4.7935938E2,6.6025E2,4.2798984E3,2.2193438E3,4.9682188E3,0E0,0E0,0E0,0E0,0E0,0E0,0E0,0E0,0E0,0E0,0E0,0E0,0E0,0E0,0E0,0E0,0E0,0E0,0E0,0E0,0E0,0E0,0E0,0E0,0E0,0E0,0E0,0E0,0E0,0E0,0E0,0E0,0E0,0E0,0E0,0E0,0E0,0E0,0E0,0E0,0E0,0E0,0E0,0E0,0E0,0E0,0E0,0E0,0E0,0E0,0E0,0E0,0E0,0E0,0E0,0E0,0E0,0E0,0E0,0E0],"parents":[2147483647,0,0,1,1,2,2,3,3,4,4,5,5,6,6,7,7,8,8,9,9,10,10,11,11,12,12,13,13,14,14,15,15,16,16,17,17,18,18,19,19,20,20,21,21,22,22,23,23,24,24,25,25,26,26,27,27,28,28,29,29,30,30,31,31,32,32,33,33,34,34,35,35,36,36,37,37,38,38,39,39,40,40,41,41,42,42,43,43,44,44,45,45,46,46,47,47,48,48,49,49,50,50,51,51,53,53,54,54,55,55,56,56,57,57,58,58,59,59,60,60],"right_children":[2,4,6,8,10,12,14,16,18,20,22,24,26,28,30,32,34,36,38,40,42,44,46,48,50,52,54,56,58,60,62,64,66,68,70,72,74,76,78,80,82,84,86,88,90,92,94,96,98,100,102,104,-1,106,108,110,112,114,116,118,120,-1,-1,-1,-1,-1,-1,-1,-1,-1,-1,-1,-1,-1,-1,-1,-1,-1,-1,-1,-1,-1,-1,-1,-1,-1,-1,-1,-1,-1,-1,-1,-1,-1,-1,-1,-1,-1,-1,-1,-1,-1,-1,-1,-1,-1,-1,-1,-1,-1,-1,-1,-1,-1,-1,-1,-1,-1,-1,-1,-1],"split_conditions":[4.0825E1,2.4020834E1,5.9020832E1,1.21E2,3.1933332E1,4.9133335E1,7.122083E1,2.0275E1,1.55E2,1.56E2,3.575E1,4.4679165E1,5.34625E1,6.31375E1,8.572083E1,9.9E1,2.2270834E1,1.33E2,1.83E2,2.7479166E1,1.83E2,1.83E2,3.8208332E1,1.369E2,4.66E1,1.634E2,1.136E2,3.3E0,2.17E1,2.94E1,9.242083E1,1.5241667E1,1.12E2,1.068E2,2.3520834E1,1.27E2,1.44E2,1.66E2,1.99E2,2.495E1,2.9508333E1,1.276E2,1.94E2,3.43875E1,1.99E2,1.99E2,2.1E2,4.31375E1,1.0093E3,4.1E0,1.634E2,5.1241665E1,9.580216E-1,5.615E1,5.8E1,4.8E1,1.807E2,6.7541664E1,1.0035E3,7.7191666E1,1.1318086E1,1.5357789E0,1.8110065E0,-1.482098E0,-1.1160007E0,-9.1626495E-1,-6.211639E-1,-8.19612E-1,-4.036872E-1,-6.0349417E-1,-4.93145E-1,-4.7586346E-1,-3.6002067E-1,-2.825199E-1,-2.0945969E-1,-1.4121436E-1,-5.4638755E-2,5.545196E-2,1.7363356E-1,-3.97129E-1,-2.904873E-1,-2.2630806E-1,-1.6150959E-1,-7.0465416E-2,2.8694484E-1,4.523423E-2,1.4973381E-1,-9.272964E-2,-3.7370156E-2,6.427341E-2,1.8437979E-1,2.1524224E-2,2.214371E-1,9.107292E-2,3.055768E-1,1.662624E-1,2.2377072E-1,1.9290657E-1,8.360532E-1,4.5491204E-1,2.699978E-1,3.3638608E-1,6.824247E-1,4.0785915E-1,4.746152E-1,5.443198E-1,6.257748E-1,9.2119706E-1,5.749959E-1,1.3751911E0,4.7452036E-1,7.220948E-1,1.1053451E0,8.376444E-1,9.515094E-1,9.039508E-1,1.4624666E0,1.1096439E0,1.311222E0,1.0593357E0,2.384627E0],"split_indices":[15,15,15,5,15,15,15,15,5,5,15,15,15,15,15,5,15,5,5,15,5,5,15,1,15,1,1,3,6,6,15,15,5,3,15,5,5,5,5,15,15,1,5,15,5,5,5,15,9,4,1,15,0,15,7,7,1,15,9,15,16,0,0,0,0,0,0,0,0,0,0,0,0,0,0,0,0,0,0,0,0,0,0,0,0,0,0,0,0,0,0,0,0,0,0,0,0,0,0,0,0,0,0,0,0,0,0,0,0,0,0,0,0,0,0,0,0,0,0,0,0],"split_type":[0,0,0,0,0,0,0,0,0,0,0,0,0,0,0,0,0,0,0,0,0,0,0,0,0,0,0,0,0,0,0,0,0,0,0,0,0,0,0,0,0,0,0,0,0,0,0,0,0,0,0,0,0,0,0,0,0,0,0,0,0,0,0,0,0,0,0,0,0,0,0,0,0,0,0,0,0,0,0,0,0,0,0,0,0,0,0,0,0,0,0,0,0,0,0,0,0,0,0,0,0,0,0,0,0,0,0,0,0,0,0,0,0,0,0,0,0,0,0,0,0],"sum_hessian":[2.4327E4,1.6339E4,7.988E3,4.847E3,1.1492E4,5.417E3,2.571E3,3.464E3,1.383E3,5.694E3,5.798E3,3.328E3,2.089E3,1.619E3,9.52E2,1.53E3,1.934E3,6.66E2,7.17E2,5.025E3,6.69E2,2.573E3,3.225E3,1.805E3,1.523E3,1.045E3,1.044E3,6.7E2,9.49E2,7.6E2,1.92E2,1.343E3,1.87E2,9.39E2,9.95E2,2.01E2,4.65E2,5.23E2,1.94E2,2.148E3,2.877E3,4.36E2,2.33E2,2.419E3,1.54E2,1.798E3,1.427E3,1.787E3,1.8E1,7.64E2,7.59E2,1.037E3,8E0,9.19E2,1.25E2,8E0,6.62E2,7.76E2,1.73E2,7.25E2,3.5E1,9.6E1,9.6E1,2.42E2,1.101E3,1.14E2,7.3E1,9.16E2,2.3E1,7.12E2,2.83E2,1E2,1.01E2,2.27E2,2.38E2,2.03E2,3.2E2,1.43E2,5.1E1,5.81E2,1.567E3,1.372E3,1.505E3,4.3E2,6E0,1.21E2,1.12E2,1.526E3,8.93E2,8.8E1,6.6E1,1.737E3,6.1E1,1.402E3,2.5E1,1.128E3,6.59E2,1E1,8E0,2.6E1,7.38E2,7.57E2,2E0,4.71E2,5.66E2,5.12E2,4.07E2,4.5E1,8E1,6E0,2E0,6.51E2,1.1E1,4.61E2,3.15E2,1.18E2,5.5E1,4.5E2,2.75E2,2.3E1,1.2E1],"tree_param":{"num_deleted":"0","num_feature":"17","num_nodes":"121","size_leaf_vector":"1"}},{"base_weights":[4.759228E-3,-5.1149936E0,1.1053031E1,-1.2940759E1,-1.8933576E0,7.133614E0,1.9828339E1,-1.685202E1,-3.139127E0,-4.018716E0,3.7134007E-1,4.9701624E0,1.0474097E1,1.6762169E1,2.5240711E1,-2.1998087E1,-1.3348319E1,-5.6780567E0,-7.7616704E-1,-4.535447E0,-6.926282E-2,-6.4152735E-1,1.6098461E0,3.7755387E0,6.026753E0,8.923701E0,1.1759858E1,1.506466E1,1.843765E1,2.3250837E1,3.1976542E1,-2.2782654E1,-1.4277014E1,-1.6037403E1,-1.120134E1,-8.459689E0,-4.840644E0,-1.9398607E0,1.1390803E0,-5.966468E0,-3.4509919E0,-1.1930629E0,1.8311673E0,-8.152575E-1,2.8246117E0,1.0887399E0,2.259704E0,3.7106078E0,1.004725E1,5.465732E0,6.902196E0,8.755531E0,1.380588E1,1.106519E1,1.2707103E1,1.4873203E1,2.3594854E1,1.8225725E1,3.0146515E1,2.2917997E1,3.0562347E1,1.4597815E0,1.7213898E0,-1.1647731E0,-4.8969966E-1,-8.322188E-1,-6.004328E-1,-8.1354344E-1,-3.54229E-1,-6.311614E-1,-5.119984E-1,-4.6430928E-1,-3.72593E-1,-2.7826086E-1,-1.9903064E-1,-1.3418835E-1,-6.549781E-2,4.050568E-3,1.1221363E-1,-3.698491E-1,-2.6921126E-1,-2.0432615E-1,-1.3912614E-1,-6.487157E-2,2.7464736E-1,4.260086E-2,1.4247794E-1,-4.3489628E-2,5.027606E-1,1.060717E-1,2.4962059E-1,4.884961E-2,2.2482195E-1,7.0422786E-1,1.1080774E-1,1.6662173E-1,2.1649623E-1,2.0362554E-1,7.383041E-1,2.7117142E-1,6.6112584E-1,3.425553E-1,5.6901044E-1,3.932811E-1,4.559281E-1,8.423649E-1,3.5104752E-1,5.3593564E-1,6.9089025E-1,7.918719E-1,6.281896E-1,1.2494698E0,7.371871E-1,1.2150067E0,3.430235E-1,8.708815E-1,9.759984E-1,1.6453018E0,5.449633E-1,1.0673602E0,1.2458986E0,2.2570994E0,1.0094153E0],"categories":[],"categories_nodes":[],"categories_segments":[],"categories_sizes":[],"default_left":[0,0,0,0,0,0,0,0,0,0,0,0,0,0,0,0,0,0,0,0,0,0,0,0,0,0,0,0,0,0,0,0,0,0,0,0,0,0,0,0,0,0,0,0,0,0,0,0,0,0,0,0,0,0,0,0,0,0,0,0,0,0,0,0,0,0,0,0,0,0,0,0,0,0,0,0,0,0,0,0,0,0,0,0,0,0,0,0,0,0,0,0,0,0,0,0,0,0,0,0,0,0,0,0,0,0,0,0,0,0,0,0,0,0,0,0,0,0,0,0,0,0,0],"id":7,"left_children":[1,3,5,7,9,11,13,15,17,19,21,23,25,27,29,31,33,35,37,39,41,43,45,47,49,51,53,55,57,59,61,63,65,67,69,71,73,75,77,79,81,83,85,87,89,91,93,95,97,99,101,103,105,107,109,111,113,115,117,119,121,-1,-1,-1,-1,-1,-1,-1,-1,-1,-1,-1,-1,-1,-1,-1,-1,-1,-1,-1,-1,-1,-1,-1,-1,-1,-1,-1,-1,-1,-1,-1,-1,-1,-1,-1,-1,-1,-1,-1,-1,-1,-1,-1,-1,-1,-1,-1,-1,-1,-1,-1,-1,-1,-1,-1,-1,-1,-1,-1,-1,-1,-1],"loss_changes":[1.3761558E6,4.191211E5,2.6483062E5,1.8580369E5,5.669247E4,3.844603E4,3.9040375E4,6.218125E4,8.29875E3,1.2399617E4,7.155118E3,4.0605547E3,4.0673281E3,4.0482188E3,1.07566875E4,8.167625E3,1.17366875E4,1.5127422E3,1.6024603E3,8.317656E3,1.5057201E3,1.8919207E3,8.665034E2,5.8211523E2,8.0458594E2,6.615703E2,6.102031E2,8.918906E2,1.3389062E3,9.2034375E2,3.105E2,8.2375625E3,5.0896875E2,1.7951406E3,1.444125E3,5.8245117E1,2.9877246E2,2.0594421E2,3.1788672E2,1.8883516E3,1.2881914E3,3.1625592E2,2.5882758E2,1.7806895E3,2.1806116E2,5.386311E2,5.5636035E2,3.3852148E2,3.6277173E2,2.7283398E2,7.440039E1,2.2678906E2,5.0079004E2,4.870703E2,1.45625E1,6.098906E2,1.0326172E1,4.4439062E2,2.7870605E2,1.4818125E3,3.0211523E3,0E0,0E0,0E0,0E0,0E0,0E0,0E0,0E0,0E0,0E0,0E0,0E0,0E0,0E0,0E0,0E0,0E0,0E0,0E0,0E0,0E0,0E0,0E0,0E0,0E0,0E0,0E0,0E0,0E0,0E0,0E0,0E0,0E0,0E0,0E0,0E0,0E0,0E0,0E0,0E0,0E0,0E0,0E0,0E0,0E0,0E0,0E0,0E0,0E0,0E0,0E0,0E0,0E0,0E0,0E0,0E0,0E0,0E0,0E0,0E0,0E0,0E0],"parents":[2147483647,0,0,1,1,2,2,3,3,4,4,5,5,6,6,7,7,8,8,9,9,10,10,11,11,12,12,13,13,14,14,15,15,16,16,17,17,18,18,19,19,20,20,21,21,22,22,23,23,24,24,25,25,26,26,27,27,28,28,29,29,30,30,31,31,32,32,33,33,34,34,35,35,36,36,37,37,38,38,39,39,40,40,41,41,42,42,43,43,44,44,45,45,46,46,47,47,48,48,49,49,50,50,51,51,52,52,53,53,54,54,55,55,56,56,57,57,58,58,59,59,60,60],"right_children":[2,4,6,8,10,12,14,16,18,20,22,24,26,28,30,32,34,36,38,40,42,44,46,48,50,52,54,56,58,60,62,64,66,68,70,72,74,76,78,80,82,84,86,88,90,92,94,96,98,100,102,104,106,108,110,112,114,116,118,120,122,-1,-1,-1,-1,-1,-1,-1,-1,-1,-1,-1,-1,-1,-1,-1,-1,-1,-1,-1,-1,-1,-1,-1,-1,-1,-1,-1,-1,-1,-1,-1,-1,-1,-1,-1,-1,-1,-1,-1,-1,-1,-1,-1,-1,-1,-1,-1,-1,-1,-1,-1,-1,-1,-1,-1,-1,-1,-1,-1,-1,-1,-1],"split_conditions":[4.1404167E1,2.4020834E1,6.0195835E1,1.21E2,3.2541668E1,4.9925E1,7.2441666E1,1.9895834E1,1.55E2,1.57E2,3.6895832E1,4.4679165E1,5.38375E1,6.532083E1,8.572083E1,1.04E2,2.19375E1,1.3E2,1.77E2,2.7741667E1,1.83E2,1.88E2,3.9204166E1,1.369E2,4.75375E1,1.318E2,5.7304165E1,1.807E2,1.807E2,2.94E1,9.242083E1,9.51E1,1.12E2,1.068E2,2.2808332E1,1.26E2,1.44E2,1.66E2,1.88E2,2.50875E1,3.0045834E1,1.276E2,1.94E2,1.509E2,2.1E2,1.99E2,1.6E1,4.3345833E1,1.0093E3,1.634E2,1.43E2,5.1241665E1,8.38E1,1.157E2,4.2E0,3.3E0,1.073E2,6.90125E1,9.27E1,7.7191666E1,4.5E1,1.4597815E0,1.7213898E0,-1.1647731E0,-4.8969966E-1,-8.322188E-1,-6.004328E-1,-8.1354344E-1,-3.54229E-1,-6.311614E-1,-5.119984E-1,-4.6430928E-1,-3.72593E-1,-2.7826086E-1,-1.9903064E-1,-1.3418835E-1,-6.549781E-2,4.050568E-3,1.1221363E-1,-3.698491E-1,-2.6921126E-1,-2.0432615E-1,-1.3912614E-1,-6.487157E-2,2.7464736E-1,4.260086E-2,1.4247794E-1,-4.3489628E-2,5.027606E-1,1.060717E-1,2.4962059E-1,4.884961E-2,2.2482195E-1,7.0422786E-1,1.1080774E-1,1.6662173E-1,2.1649623E-1,2.0362554E-1,7.383041E-1,2.7117142E-1,6.6112584E-1,3.425553E-1,5.6901044E-1,3.932811E-1,4.559281E-1,8.423649E-1,3.5104752E-1,5.3593564E-1,6.9089025E-1,7.918719E-1,6.281896E-1,1.2494698E0,7.371871E-1,1.2150067E0,3.430235E-1,8.708815E-1,9.759984E-1,1.6453018E0,5.449633E-1,1.0673602E0,1.2458986E0,2.2570994E0,1.0094153E0],"split_indices":[15,15,15,5,15,15,15,15,5,5,15,15,15,15,15,5,15,5,5,15,5,5,15,1,15,1,15,1,1,6,15,3,5,3,15,5,5,5,5,15,15,1,5,1,5,5,7,15,9,1,1,15,0,1,3,3,0,15,0,15,7,0,0,0,0,0,0,0,0,0,0,0,0,0,0,0,0,0,0,0,0,0,0,0,0,0,0,0,0,0,0,0,0,0,0,0,0,0,0,0,0,0,0,0,0,0,0,0,0,0,0,0,0,0,0,0,0,0,0,0,0,0,0],"split_type":[0,0,0,0,0,0,0,0,0,0,0,0,0,0,0,0,0,0,0,0,0,0,0,0,0,0,0,0,0,0,0,0,0,0,0,0,0,0,0,0,0,0,0,0,0,0,0,0,0,0,0,0,0,0,0,0,0,0,0,0,0,0,0,0,0,0,0,0,0,0,0,0,0,0,0,0,0,0,0,0,0,0,0,0,0,0,0,0,0,0,0,0,0,0,0,0,0,0,0,0,0,0,0,0,0,0,0,0,0,0,0,0,0,0,0,0,0,0,0,0,0,0,0],"sum_hessian":[2.4327E4,1.6624E4,7.703E3,4.847E3,1.1777E4,5.326E3,2.377E3,3.464E3,1.383E3,6.075E3,5.702E3,3.234E3,2.092E3,1.52E3,8.57E2,1.401E3,2.063E3,6.66E2,7.17E2,5.372E3,7.03E2,3.137E3,2.565E3,1.52E3,1.714E3,9.52E2,1.14E3,7.6E2,7.6E2,6.65E2,1.92E2,1.27E3,1.31E2,9.13E2,1.15E3,1.52E2,5.14E2,4.46E2,2.71E2,2.314E3,3.058E3,4.42E2,2.61E2,2.988E3,1.49E2,1.425E3,1.14E3,1.506E3,1.4E1,1.049E3,6.65E2,9.23E2,2.9E1,6.65E2,4.75E2,7.46E2,1.4E1,7.49E2,1.1E1,6.4E2,2.5E1,9.6E1,9.6E1,1.221E3,4.9E1,6.1E1,7E1,8.89E2,2.4E1,4.59E2,6.91E2,7.9E1,7.3E1,2.76E2,2.38E2,2.03E2,2.43E2,1.39E2,1.32E2,6.66E2,1.648E3,1.565E3,1.493E3,4.36E2,6E0,1.34E2,1.27E2,2.974E3,1.4E1,1.14E2,3.5E1,1.381E3,4.4E1,3E0,1.137E3,9.39E2,5.67E2,7E0,7E0,1.045E3,4E0,6.6E2,5E0,2.74E2,6.49E2,1.9E1,1E1,5.95E2,7E1,1.6E1,4.59E2,7E0,7.39E2,1.3E1,1E0,4.7E2,2.79E2,9E0,2E0,3.65E2,2.75E2,9E0,1.6E1],"tree_param":{"num_deleted":"0","num_feature":"17","num_nodes":"123","size_leaf_vector":"1"}},{"base_weights":[5.290717E-3,-4.9922237E0,1.0226768E1,-1.2295123E1,-1.9112657E0,6.4665055E0,1.8606468E1,-1.609225E1,-3.18085E0,-3.9522846E0,9.347864E-2,4.487074E0,9.701627E0,1.5483927E1,2.3573833E1,-2.0342525E1,-1.2113835E1,-5.6472754E0,-7.374754E-1,-4.465338E0,-2.0579466E-1,-1.1118808E0,1.0551964E0,3.4547658E0,5.6358457E0,8.232747E0,1.09152775E1,1.345992E1,1.6688423E1,2.127676E1,2.8830189E1,-2.4630878E1,-1.896744E1,-1.4137986E1,-1.0154724E1,-8.371441E0,-4.59954E0,-1.8433152E0,1.0825536E0,-5.8266463E0,-3.513216E0,-1.5026591E0,1.312636E0,-1.3545274E0,1.669274E0,9.5907485E-1,4.8231897E0,3.3903983E0,9.33025E0,5.054214E0,6.2833576E0,8.143787E0,8.850446E-1,1.0677367E1,1.3715209E1,2.2480951E1,1.3292399E1,1.5966606E1,1.9815805E1,2.0828573E1,2.855391E1,1.3350841E0,1.6362078E0,-1.3219738E0,-8.881009E-1,-9.6782744E-1,-2.9930493E-1,-2.5177938E-1,-7.1515065E-1,-5.138008E-1,-1.3941641E-1,-4.255224E-1,-1.2755713E-1,-2.6439813E-1,-1.8912087E-1,-1.2751196E-1,-6.223631E-2,2.029105E-2,1.3366479E-1,-3.7679607E-1,-2.6954252E-1,-2.062253E-1,-1.458569E-1,-8.0223724E-2,3.135556E-1,2.6935393E-2,1.3525243E-1,-9.172197E-2,-4.1356217E-2,4.2953324E-2,1.6747116E-1,4.604565E-2,5.426064E-1,1.9288357E-1,3.2392606E-1,1.4565772E-1,1.959772E-1,2.6760435E-1,9.699344E-1,4.1523695E-1,2.4693036E-1,3.117827E-1,6.882189E-1,3.7473446E-1,4.2810783E-1,4.9447742E-1,5.7382447E-1,8.68927E-1,4.8238626E-1,1.263198E0,4.2468086E-1,6.5738034E-1,1.0388259E0,7.3536277E-1,8.383337E-1,8.155165E-1,1.3455544E0,9.839636E-1,1.1119852E0,9.6069545E-1,2.1800268E0],"categories":[],"categories_nodes":[],"categories_segments":[],"categories_sizes":[],"default_left":[0,0,0,0,0,0,0,0,0,0,0,0,0,0,0,0,0,0,0,0,0,0,0,0,0,0,0,0,0,0,0,0,0,0,0,0,0,0,0,0,0,0,0,0,0,0,0,0,0,0,0,0,0,0,0,0,0,0,0,0,0,0,0,0,0,0,0,0,0,0,0,0,0,0,0,0,0,0,0,0,0,0,0,0,0,0,0,0,0,0,0,0,0,0,0,0,0,0,0,0,0,0,0,0,0,0,0,0,0,0,0,0,0,0,0,0,0,0,0,0,0],"id":8,"left_children":[1,3,5,7,9,11,13,15,17,19,21,23,25,27,29,31,33,35,37,39,41,43,45,47,49,51,53,55,57,59,61,63,65,67,69,71,73,75,77,79,81,83,85,87,89,91,93,95,97,99,101,103,-1,105,107,109,111,113,115,117,119,-1,-1,-1,-1,-1,-1,-1,-1,-1,-1,-1,-1,-1,-1,-1,-1,-1,-1,-1,-1,-1,-1,-1,-1,-1,-1,-1,-1,-1,-1,-1,-1,-1,-1,-1,-1,-1,-1,-1,-1,-1,-1,-1,-1,-1,-1,-1,-1,-1,-1,-1,-1,-1,-1,-1,-1,-1,-1,-1,-1],"loss_changes":[1.2427734E6,3.6762525E5,2.51612E5,1.6772869E5,4.7026516E4,3.527928E4,3.8008625E4,5.7617438E4,8.595511E3,1.0945727E4,6.7234644E3,4.0410078E3,3.6413438E3,3.485875E3,1.0893375E4,9.2803125E3,6.8754375E3,1.9879785E3,1.4470858E3,6.4718594E3,1.354812E3,1.7392935E3,1.1637847E3,6.513789E2,5.7798047E2,6.568594E2,6.149531E2,5.6709375E2,1.828125E3,1.5806875E3,1.5049375E3,4.47475E3,6.2283438E3,1.2318281E3,7.7816406E2,1.3686426E2,2.6969922E2,1.8597705E2,2.91725E2,1.4938594E3,1.0628789E3,3.0370398E2,3.4015063E2,5.9784033E2,2.789054E2,1.1781172E3,1.02868164E2,4.4010742E2,6.5720044E2,2.8140625E2,1.8610742E2,1.921875E2,0E0,5.5258594E2,1.1137832E3,1.3575977E2,3.3910938E2,5.362969E2,3.8888594E3,5.8734375E2,4.221537E3,0E0,0E0,0E0,0E0,0E0,0E0,0E0,0E0,0E0,0E0,0E0,0E0,0E0,0E0,0E0,0E0,0E0,0E0,0E0,0E0,0E0,0E0,0E0,0E0,0E0,0E0,0E0,0E0,0E0,0E0,0E0,0E0,0E0,0E0,0E0,0E0,0E0,0E0,0E0,0E0,0E0,0E0,0E0,0E0,0E0,0E0,0E0,0E0,0E0,0E0,0E0,0E0,0E0,0E0,0E0,0E0,0E0,0E0,0E0,0E0],"parents":[2147483647,0,0,1,1,2,2,3,3,4,4,5,5,6,6,7,7,8,8,9,9,10,10,11,11,12,12,13,13,14,14,15,15,16,16,17,17,18,18,19,19,20,20,21,21,22,22,23,23,24,24,25,25,26,26,27,27,28,28,29,29,30,30,31,31,32,32,33,33,34,34,35,35,36,36,37,37,38,38,39,39,40,40,41,41,42,42,43,43,44,44,45,45,46,46,47,47,48,48,49,49,50,50,51,51,53,53,54,54,55,55,56,56,57,57,58,58,59,59,60,60],"right_children":[2,4,6,8,10,12,14,16,18,20,22,24,26,28,30,32,34,36,38,40,42,44,46,48,50,52,54,56,58,60,62,64,66,68,70,72,74,76,78,80,82,84,86,88,90,92,94,96,98,100,102,104,-1,106,108,110,112,114,116,118,120,-1,-1,-1,-1,-1,-1,-1,-1,-1,-1,-1,-1,-1,-1,-1,-1,-1,-1,-1,-1,-1,-1,-1,-1,-1,-1,-1,-1,-1,-1,-1,-1,-1,-1,-1,-1,-1,-1,-1,-1,-1,-1,-1,-1,-1,-1,-1,-1,-1,-1,-1,-1,-1,-1,-1,-1,-1,-1,-1,-1],"split_conditions":[4.0825E1,2.4020834E1,5.9554165E1,1.19E2,3.1933332E1,4.9516666E1,7.122083E1,2.0604166E1,1.55E2,1.55E2,3.575E1,4.4679165E1,5.34625E1,6.31375E1,8.24E1,1.6358334E1,2.24E1,1.3E2,1.77E2,2.7341667E1,1.77E2,1.77E2,2.05E2,1.369E2,4.69E1,1.634E2,1.243E2,3.3E0,2.17E1,2.94E1,9.242083E1,8.8E1,1.016E2,2.7544825E0,1.164E2,8.13E1,1.44E2,1.66E2,1.94E2,2.4695833E1,2.9508333E1,1.276E2,1.94E2,3.4004166E1,1.99E2,1.807E2,2.21E2,4.2758335E1,1.0105E3,4.1E0,1.634E2,5.1241665E1,8.850446E-1,5.615E1,1.009E3,4.8E1,1.807E2,6.6083336E1,1.0035E3,7.577917E1,1.1318086E1,1.3350841E0,1.6362078E0,-1.3219738E0,-8.881009E-1,-9.6782744E-1,-2.9930493E-1,-2.5177938E-1,-7.1515065E-1,-5.138008E-1,-1.3941641E-1,-4.255224E-1,-1.2755713E-1,-2.6439813E-1,-1.8912087E-1,-1.2751196E-1,-6.223631E-2,2.029105E-2,1.3366479E-1,-3.7679607E-1,-2.6954252E-1,-2.062253E-1,-1.458569E-1,-8.0223724E-2,3.135556E-1,2.6935393E-2,1.3525243E-1,-9.172197E-2,-4.1356217E-2,4.2953324E-2,1.6747116E-1,4.604565E-2,5.426064E-1,1.9288357E-1,3.2392606E-1,1.4565772E-1,1.959772E-1,2.6760435E-1,9.699344E-1,4.1523695E-1,2.4693036E-1,3.117827E-1,6.882189E-1,3.7473446E-1,4.2810783E-1,4.9447742E-1,5.7382447E-1,8.68927E-1,4.8238626E-1,1.263198E0,4.2468086E-1,6.5738034E-1,1.0388259E0,7.3536277E-1,8.383337E-1,8.155165E-1,1.3455544E0,9.839636E-1,1.1119852E0,9.6069545E-1,2.1800268E0],"split_indices":[15,15,15,5,15,15,15,15,5,5,15,15,15,15,15,15,15,5,5,15,5,5,5,1,15,1,1,3,6,6,15,5,3,16,3,1,5,5,5,15,15,1,5,15,5,1,5,15,9,4,1,15,0,15,9,7,1,15,9,15,16,0,0,0,0,0,0,0,0,0,0,0,0,0,0,0,0,0,0,0,0,0,0,0,0,0,0,0,0,0,0,0,0,0,0,0,0,0,0,0,0,0,0,0,0,0,0,0,0,0,0,0,0,0,0,0,0,0,0,0,0],"split_type":[0,0,0,0,0,0,0,0,0,0,0,0,0,0,0,0,0,0,0,0,0,0,0,0,0,0,0,0,0,0,0,0,0,0,0,0,0,0,0,0,0,0,0,0,0,0,0,0,0,0,0,0,0,0,0,0,0,0,0,0,0,0,0,0,0,0,0,0,0,0,0,0,0,0,0,0,0,0,0,0,0,0,0,0,0,0,0,0,0,0,0,0,0,0,0,0,0,0,0,0,0,0,0,0,0,0,0,0,0,0,0,0,0,0,0,0,0,0,0,0,0],"sum_hessian":[2.4327E4,1.6339E4,7.988E3,4.847E3,1.1492E4,5.515E3,2.473E3,3.421E3,1.426E3,5.694E3,5.798E3,3.423E3,2.092E3,1.521E3,9.52E2,1.652E3,1.769E3,7.09E2,7.17E2,5.008E3,6.86E2,2.573E3,3.225E3,1.805E3,1.618E3,9.5E2,1.142E3,5.72E2,9.49E2,6.66E2,2.86E2,3.97E2,1.255E3,8.67E2,9.02E2,1.95E2,5.14E2,4.46E2,2.71E2,2.059E3,2.949E3,3.7E2,3.16E2,2.367E3,2.06E2,3.146E3,7.9E1,1.787E3,1.8E1,8.57E2,7.61E2,9.43E2,7E0,1.057E3,8.5E1,8E0,5.64E2,7.76E2,1.73E2,6.31E2,3.5E1,1.9E2,9.6E1,3.12E2,8.5E1,1.218E3,3.7E1,1.6E1,8.51E2,8.87E2,1.5E1,1.9E2,5E0,2.76E2,2.38E2,2.03E2,2.43E2,1.91E2,8E1,4.15E2,1.644E3,1.453E3,1.496E3,3.66E2,4E0,2.04E2,1.12E2,1.238E3,1.129E3,1.4E2,6.6E1,3.135E3,1.1E1,5.2E1,2.7E1,9.43E2,8.44E2,1.4E1,4E0,2.7E1,8.3E2,7.58E2,3E0,3.77E2,5.66E2,5.39E2,5.18E2,4.3E1,4.2E1,6E0,2E0,5.56E2,8E0,3.09E2,4.67E2,1.18E2,5.5E1,3.56E2,2.75E2,2.3E1,1.2E1],"tree_param":{"num_deleted":"0","num_feature":"17","num_nodes":"121","size_leaf_vector":"1"}},{"base_weights":[5.7296003E-3,-4.45038E0,1.035605E1,-1.1400099E1,-1.4459704E0,6.825006E0,1.8146723E1,-1.4749165E1,-2.759267E0,-3.1836722E0,8.4254557E-1,4.789292E0,9.68438E0,1.5565187E1,2.326909E1,-1.853036E1,-1.0467511E1,-4.6762633E0,-2.8841925E-1,-3.524479E0,9.233411E-1,4.2242073E-2,2.000387E0,4.012458E0,6.0111814E0,8.507055E0,1.1088975E1,1.4291685E1,1.7658945E1,2.131958E1,2.891625E1,-2.0798359E1,-1.609995E1,-1.2218819E1,-8.888132E0,-7.073915E0,-3.8706589E0,-1.1712743E0,1.5258337E0,-4.529609E0,-2.299262E0,1.6975021E-1,2.6871073E0,2.958612E-3,1.083064E1,1.9585209E0,9.104423E0,3.9532957E0,9.362536E0,2.7252275E-1,6.5613985E0,8.347839E0,1.2692714E1,1.0398665E1,1.1757439E1,1.6386324E1,1.3715596E1,2.187405E1,1.681426E1,2.038196E1,1.1539146E0,1.3214792E0,1.5552408E0,-1.0891367E0,-6.976097E-1,-8.193415E-1,-3.5241485E-1,-2.2246377E-1,-6.1986685E-1,-4.85294E-1,-3.9858386E-1,-4.0437302E-1,-3.0674753E-1,-2.401729E-1,-1.6279994E-1,-8.371888E-2,-2.4793863E-2,5.5839386E-2,1.8994696E-1,-2.373827E-1,-1.1050524E-1,-1.4005892E-1,-9.203964E-2,-2.9449126E-2,2.568388E-2,1.0810468E-1,2.401297E-1,-6.9255936E-3,1.4915554E-1,6.2445325E-1,-1.4384042E-1,9.4426736E-2,2.9437503E-1,7.1164644E-1,-4.610352E-2,1.6559927E-1,2.2082499E-1,1.9685371E-1,6.9258726E-1,3.2259598E-1,6.034472E-1,3.7945533E-1,4.441602E-1,7.684002E-1,3.3133015E-1,5.0351876E-1,6.2362087E-1,5.820413E-1,8.5620993E-1,6.906711E-1,1.4983596E0,6.358246E-1,7.276915E-1,8.2458353E-1,1.4083484E0,7.976743E-1,8.7940645E-1,9.92448E-1,1.2787353E0],"categories":[],"categories_nodes":[],"categories_segments":[],"categories_sizes":[],"default_left":[0,0,0,0,0,0,0,0,0,0,0,0,0,0,0,0,0,0,0,0,0,0,0,0,0,0,0,0,0,0,0,0,0,0,0,0,0,0,0,0,0,0,0,0,0,0,0,0,0,0,0,0,0,0,0,0,0,0,0,0,0,0,0,0,0,0,0,0,0,0,0,0,0,0,0,0,0,0,0,0,0,0,0,0,0,0,0,0,0,0,0,0,0,0,0,0,0,0,0,0,0,0,0,0,0,0,0,0,0,0,0,0,0,0,0,0,0,0,0],"id":9,"left_children":[1,3,5,7,9,11,13,15,17,19,21,23,25,27,29,31,33,35,37,39,41,43,45,47,49,51,53,55,57,59,61,63,65,67,69,71,73,75,77,79,81,83,85,87,89,91,93,95,97,-1,99,101,103,105,107,109,111,113,115,117,-1,-1,-1,-1,-1,-1,-1,-1,-1,-1,-1,-1,-1,-1,-1,-1,-1,-1,-1,-1,-1,-1,-1,-1,-1,-1,-1,-1,-1,-1,-1,-1,-1,-1,-1,-1,-1,-1,-1,-1,-1,-1,-1,-1,-1,-1,-1,-1,-1,-1,-1,-1,-1,-1,-1,-1,-1,-1,-1],"loss_changes":[1.122106E6,3.5508628E5,2.0129856E5,1.4850175E5,4.7226688E4,2.9290781E4,2.9827188E4,5.9691938E4,6.7956807E3,9.451219E3,4.749793E3,2.7722422E3,3.3700781E3,3.80325E3,7.7835938E3,1.04855625E4,4.6958906E3,1.5333203E3,1.0076688E3,7.6655312E3,6.8804785E2,1.2849465E3,6.0525977E2,5.339961E2,3.168789E2,6.564453E2,3.1703125E2,9.228281E2,1.6652031E3,4.7120312E2,2.2825E2,6.5161562E3,2.3565625E3,1.0835781E3,6.098594E2,1.4262402E2,3.3238672E2,1.4290277E2,1.8729709E2,1.7207109E3,6.416914E2,9.528798E1,1.6176843E2,1.2744991E3,2.8598926E2,5.6192773E2,6.3017487E2,5.1591797E2,4.0822913E2,0E0,2.670254E2,3.814297E2,5.4730664E2,1.9913672E2,9.85625E1,6.574496E3,4.4470312E2,2.6516016E3,3.9140625E1,5.468594E2,0E0,0E0,0E0,0E0,0E0,0E0,0E0,0E0,0E0,0E0,0E0,0E0,0E0,0E0,0E0,0E0,0E0,0E0,0E0,0E0,0E0,0E0,0E0,0E0,0E0,0E0,0E0,0E0,0E0,0E0,0E0,0E0,0E0,0E0,0E0,0E0,0E0,0E0,0E0,0E0,0E0,0E0,0E0,0E0,0E0,0E0,0E0,0E0,0E0,0E0,0E0,0E0,0E0,0E0,0E0,0E0,0E0,0E0,0E0],"parents":[2147483647,0,0,1,1,2,2,3,3,4,4,5,5,6,6,7,7,8,8,9,9,10,10,11,11,12,12,13,13,14,14,15,15,16,16,17,17,18,18,19,19,20,20,21,21,22,22,23,23,24,24,25,25,26,26,27,27,28,28,29,29,30,30,31,31,32,32,33,33,34,34,35,35,36,36,37,37,38,38,39,39,40,40,41,41,42,42,43,43,44,44,45,45,46,46,47,47,48,48,50,50,51,51,52,52,53,53,54,54,55,55,56,56,57,57,58,58,59,59],"right_children":[2,4,6,8,10,12,14,16,18,20,22,24,26,28,30,32,34,36,38,40,42,44,46,48,50,52,54,56,58,60,62,64,66,68,70,72,74,76,78,80,82,84,86,88,90,92,94,96,98,-1,100,102,104,106,108,110,112,114,116,118,-1,-1,-1,-1,-1,-1,-1,-1,-1,-1,-1,-1,-1,-1,-1,-1,-1,-1,-1,-1,-1,-1,-1,-1,-1,-1,-1,-1,-1,-1,-1,-1,-1,-1,-1,-1,-1,-1,-1,-1,-1,-1,-1,-1,-1,-1,-1,-1,-1,-1,-1,-1,-1,-1,-1,-1,-1,-1,-1],"split_conditions":[4.2183334E1,2.4429167E1,6.0729168E1,1.22E2,3.4004166E1,5.0441666E1,7.338333E1,2.1266666E1,1.61E2,1.72E2,3.8208332E1,4.6354168E1,5.5166668E1,6.7541664E1,8.572083E1,1.8629168E1,2.2808332E1,1.33E2,1.83E2,2.9508333E1,1.94E2,1.807E2,1.43E2,1.369E2,4.8116665E1,1.318E2,5.79375E1,1.01E3,1.013E3,7.965417E1,9.242083E1,1E2,1.028E2,2.7544825E0,2.3666666E1,1.27E2,1.44E2,1.72E2,2.05E2,1.44E2,3.1504168E1,1.77E2,2.1E2,1.94E2,5.86E1,2.12E2,1.67E2,4.3758335E1,1.0078E3,2.7252275E-1,1.318E2,5.2508335E1,8.92E1,1.136E2,1.807E2,1.0038E3,6.3808334E1,1.19443445E1,7.0125E1,2.69E1,1.1539146E0,1.3214792E0,1.5552408E0,-1.0891367E0,-6.976097E-1,-8.193415E-1,-3.5241485E-1,-2.2246377E-1,-6.1986685E-1,-4.85294E-1,-3.9858386E-1,-4.0437302E-1,-3.0674753E-1,-2.401729E-1,-1.6279994E-1,-8.371888E-2,-2.4793863E-2,5.5839386E-2,1.8994696E-1,-2.373827E-1,-1.1050524E-1,-1.4005892E-1,-9.203964E-2,-2.9449126E-2,2.568388E-2,1.0810468E-1,2.401297E-1,-6.9255936E-3,1.4915554E-1,6.2445325E-1,-1.4384042E-1,9.4426736E-2,2.9437503E-1,7.1164644E-1,-4.610352E-2,1.6559927E-1,2.2082499E-1,1.9685371E-1,6.9258726E-1,3.2259598E-1,6.034472E-1,3.7945533E-1,4.441602E-1,7.684002E-1,3.3133015E-1,5.0351876E-1,6.2362087E-1,5.820413E-1,8.5620993E-1,6.906711E-1,1.4983596E0,6.358246E-1,7.276915E-1,8.2458353E-1,1.4083484E0,7.976743E-1,8.7940645E-1,9.92448E-1,1.2787353E0],"split_indices":[15,15,15,5,15,15,15,15,5,5,15,15,15,15,15,15,15,5,5,15,5,1,1,1,15,1,15,9,9,15,15,5,3,16,15,5,5,5,5,5,15,5,5,5,0,5,5,15,9,0,1,15,0,1,1,9,15,16,15,6,0,0,0,0,0,0,0,0,0,0,0,0,0,0,0,0,0,0,0,0,0,0,0,0,0,0,0,0,0,0,0,0,0,0,0,0,0,0,0,0,0,0,0,0,0,0,0,0,0,0,0,0,0,0,0,0,0,0,0],"split_type":[0,0,0,0,0,0,0,0,0,0,0,0,0,0,0,0,0,0,0,0,0,0,0,0,0,0,0,0,0,0,0,0,0,0,0,0,0,0,0,0,0,0,0,0,0,0,0,0,0,0,0,0,0,0,0,0,0,0,0,0,0,0,0,0,0,0,0,0,0,0,0,0,0,0,0,0,0,0,0,0,0,0,0,0,0,0,0,0,0,0,0,0,0,0,0,0,0,0,0,0,0,0,0,0,0,0,0,0,0,0,0,0,0,0,0,0,0,0,0],"sum_hessian":[2.4327E4,1.7006E4,7.321E3,5.132E3,1.1874E4,5.039E3,2.282E3,3.698E3,1.434E3,6.749E3,5.125E3,2.945E3,2.094E3,1.52E3,7.62E2,1.962E3,1.736E3,8.07E2,6.27E2,6.232E3,5.17E2,3.031E3,2.094E3,1.803E3,1.142E3,1.143E3,9.51E2,9.5E2,5.7E2,5.7E2,1.92E2,1.011E3,9.51E2,8.2E2,9.16E2,2.01E2,6.06E2,4.22E2,2.05E2,3.422E3,2.81E3,3.63E2,1.54E2,3.021E3,1E1,2.083E3,1.1E1,1.785E3,1.8E1,5.71E2,5.71E2,1.104E3,3.9E1,4.76E2,4.75E2,1.99E2,7.51E2,9.1E1,4.79E2,3.8E2,1.9E2,9.6E1,9.6E1,8.82E2,1.29E2,9.21E2,3E1,1.9E1,8.01E2,4.79E2,4.37E2,9.3E1,1.08E2,2.38E2,3.68E2,2.41E2,1.81E2,1.75E2,3E1,3.127E3,2.95E2,1.339E3,1.471E3,1.13E2,2.5E2,1.25E2,2.9E1,2.885E3,1.36E2,9E0,1E0,2.048E3,3.5E1,7E0,4E0,7.52E2,1.033E3,9E0,9E0,5.62E2,9E0,4.63E2,6.41E2,2.6E1,1.3E1,4.16E2,6E1,4.68E2,7E0,1.69E2,3E1,3.5E2,4.01E2,5.1E1,4E1,2.37E2,2.42E2,3.49E2,3.1E1],"tree_param":{"num_deleted":"0","num_feature":"17","num_nodes":"119","size_leaf_vector":"1"}},{"base_weights":[6.1217933E-3,-4.507453E0,9.237791E0,-1.1006101E1,-1.6863189E0,5.8420143E0,1.6805237E1,-1.4399575E1,-2.8621264E0,-3.4552653E0,1.4548478E-1,4.0567374E0,8.75981E0,1.3979607E1,2.1300312E1,-1.8378586E1,-1.0815179E1,-5.084115E0,-6.574765E-1,-3.905414E0,-1.0684233E-1,-9.581219E-1,9.5757926E-1,3.12766E0,5.090621E0,7.429093E0,9.85933E0,1.2150462E1,1.5068154E1,1.9220852E1,2.6058846E1,-2.4222801E1,-1.7487953E1,-1.2949278E1,-9.216997E0,-7.518109E0,-4.1489763E0,-1.6590362E0,9.84132E-1,-5.074559E0,-3.0069914E0,-1.0318797E0,1.5699879E0,-1.1485089E0,1.8926138E0,8.695069E-1,4.4101553E0,3.0688684E0,8.495633E0,5.0506654E0,6.785193E-1,7.3464346E0,8.127062E-1,9.639868E0,1.2444592E1,2.0558897E1,1.1995017E1,1.816937E1,1.4445344E1,1.8800356E1,2.6068983E1,1.2070746E0,1.4782802E0,-1.351195E0,-8.414685E-1,-8.9348763E-1,-2.6360255E-1,-6.564231E-1,-2.5171873E-1,-4.922606E-1,-3.961732E-1,-3.8238254E-1,-1.0274891E-1,-2.5534442E-1,-1.8345621E-1,-1.1460795E-1,-5.630211E-2,2.4369487E-3,9.80217E-2,-3.0091152E-1,-2.2580336E-1,-1.7706327E-1,-1.2544122E-1,-5.639812E-2,2.5637802E-1,4.839885E-2,1.41136E-1,-5.854031E-2,3.6482945E-1,6.5385796E-2,1.9162413E-1,4.1725375E-2,4.971786E-1,1.7554237E-1,2.9774556E-1,1.3630842E-1,1.825222E-1,2.3703931E-1,9.0305233E-1,2.2936125E-1,2.854747E-1,3.3820626E-1,3.8608426E-1,4.46582E-1,5.1790893E-1,7.9500073E-1,4.3097016E-1,1.1540191E0,3.9112347E-1,5.9313637E-1,9.424761E-1,7.361366E-1,1.4381722E0,6.8678075E-1,7.961476E-1,8.8779163E-1,1.0041652E0,8.62685E-1,2.0169022E0],"categories":[],"categories_nodes":[],"categories_segments":[],"categories_sizes":[],"default_left":[0,0,0,0,0,0,0,0,0,0,0,0,0,0,0,0,0,0,0,0,0,0,0,0,0,0,0,0,0,0,0,0,0,0,0,0,0,0,0,0,0,0,0,0,0,0,0,0,0,0,0,0,0,0,0,0,0,0,0,0,0,0,0,0,0,0,0,0,0,0,0,0,0,0,0,0,0,0,0,0,0,0,0,0,0,0,0,0,0,0,0,0,0,0,0,0,0,0,0,0,0,0,0,0,0,0,0,0,0,0,0,0,0,0,0,0,0,0,0],"id":10,"left_children":[1,3,5,7,9,11,13,15,17,19,21,23,25,27,29,31,33,35,37,39,41,43,45,47,49,51,53,55,57,59,61,63,65,67,69,71,73,75,77,79,81,83,85,87,89,91,93,95,97,99,-1,101,-1,103,105,107,109,111,113,115,117,-1,-1,-1,-1,-1,-1,-1,-1,-1,-1,-1,-1,-1,-1,-1,-1,-1,-1,-1,-1,-1,-1,-1,-1,-1,-1,-1,-1,-1,-1,-1,-1,-1,-1,-1,-1,-1,-1,-1,-1,-1,-1,-1,-1,-1,-1,-1,-1,-1,-1,-1,-1,-1,-1,-1,-1,-1,-1],"loss_changes":[1.0137365E6,2.995517E5,2.05198E5,1.3664831E5,3.692443E4,2.8697703E4,3.1125562E4,4.9591E4,7.129175E3,8.737336E3,5.0189253E3,3.2730352E3,2.9891406E3,2.8474062E3,8.92925E3,8.180375E3,6.152875E3,1.6189961E3,1.2051643E3,5.352211E3,1.0687979E3,1.2906458E3,9.7711597E2,5.4388477E2,4.800039E2,5.743047E2,5.2853906E2,5.0232812E2,1.5724219E3,1.430625E3,1.2159531E3,4.0185078E3,6.612625E3,1.0472031E3,7.793047E2,1.25825195E2,2.2304199E2,1.509591E2,2.5378131E2,1.1423086E3,7.6084375E2,2.6854968E2,1.8203656E2,4.2770312E2,1.6404736E2,9.9114966E2,9.02301E1,3.4640625E2,5.967931E2,4.6630078E2,0E0,1.5403906E2,0E0,4.4571094E2,9.996699E2,1.0848657E2,2.8872656E2,5.2361875E3,6.160469E2,4.903125E2,3.8323086E3,0E0,0E0,0E0,0E0,0E0,0E0,0E0,0E0,0E0,0E0,0E0,0E0,0E0,0E0,0E0,0E0,0E0,0E0,0E0,0E0,0E0,0E0,0E0,0E0,0E0,0E0,0E0,0E0,0E0,0E0,0E0,0E0,0E0,0E0,0E0,0E0,0E0,0E0,0E0,0E0,0E0,0E0,0E0,0E0,0E0,0E0,0E0,0E0,0E0,0E0,0E0,0E0,0E0,0E0,0E0,0E0,0E0,0E0],"parents":[2147483647,0,0,1,1,2,2,3,3,4,4,5,5,6,6,7,7,8,8,9,9,10,10,11,11,12,12,13,13,14,14,15,15,16,16,17,17,18,18,19,19,20,20,21,21,22,22,23,23,24,24,25,25,26,26,27,27,28,28,29,29,30,30,31,31,32,32,33,33,34,34,35,35,36,36,37,37,38,38,39,39,40,40,41,41,42,42,43,43,44,44,45,45,46,46,47,47,48,48,49,49,51,51,53,53,54,54,55,55,56,56,57,57,58,58,59,59,60,60],"right_children":[2,4,6,8,10,12,14,16,18,20,22,24,26,28,30,32,34,36,38,40,42,44,46,48,50,52,54,56,58,60,62,64,66,68,70,72,74,76,78,80,82,84,86,88,90,92,94,96,98,100,-1,102,-1,104,106,108,110,112,114,116,118,-1,-1,-1,-1,-1,-1,-1,-1,-1,-1,-1,-1,-1,-1,-1,-1,-1,-1,-1,-1,-1,-1,-1,-1,-1,-1,-1,-1,-1,-1,-1,-1,-1,-1,-1,-1,-1,-1,-1,-1,-1,-1,-1,-1,-1,-1,-1,-1,-1,-1,-1,-1,-1,-1,-1,-1,-1,-1],"split_conditions":[4.0825E1,2.4166666E1,5.9554165E1,1.19E2,3.22375E1,4.9516666E1,7.122083E1,2.0604166E1,1.55E2,1.56E2,3.575E1,4.4679165E1,5.34625E1,6.31375E1,8.24E1,1.4708333E1,2.2270834E1,1.3E2,1.77E2,2.7741667E1,1.83E2,1.82E2,2.05E2,1.369E2,1.634E2,1.634E2,1.243E2,3.3E0,1.0107E3,2.94E1,9.242083E1,8.1E1,1.004E2,6.89E1,2.3520834E1,8.13E1,1.39E2,1.66E2,1.88E2,2.5516666E1,2.9745832E1,1.276E2,1.99E2,1.509E2,2.05E2,1.807E2,2.21E2,4.31375E1,1.0105E3,4.7233334E1,6.785193E-1,5.1241665E1,8.127062E-1,5.615E1,1.009E3,4.8E1,1.807E2,1.0035E3,6.82125E1,7.577917E1,1.1318086E1,1.2070746E0,1.4782802E0,-1.351195E0,-8.414685E-1,-8.9348763E-1,-2.6360255E-1,-6.564231E-1,-2.5171873E-1,-4.922606E-1,-3.961732E-1,-3.8238254E-1,-1.0274891E-1,-2.5534442E-1,-1.8345621E-1,-1.1460795E-1,-5.630211E-2,2.4369487E-3,9.80217E-2,-3.0091152E-1,-2.2580336E-1,-1.7706327E-1,-1.2544122E-1,-5.639812E-2,2.5637802E-1,4.839885E-2,1.41136E-1,-5.854031E-2,3.6482945E-1,6.5385796E-2,1.9162413E-1,4.1725375E-2,4.971786E-1,1.7554237E-1,2.9774556E-1,1.3630842E-1,1.825222E-1,2.3703931E-1,9.0305233E-1,2.2936125E-1,2.854747E-1,3.3820626E-1,3.8608426E-1,4.46582E-1,5.1790893E-1,7.9500073E-1,4.3097016E-1,1.1540191E0,3.9112347E-1,5.9313637E-1,9.424761E-1,7.361366E-1,1.4381722E0,6.8678075E-1,7.961476E-1,8.8779163E-1,1.0041652E0,8.62685E-1,2.0169022E0],"split_indices":[15,15,15,5,15,15,15,15,5,5,15,15,15,15,15,15,15,5,5,15,5,5,5,1,1,1,1,3,9,6,15,5,3,1,15,1,5,5,5,15,15,1,5,1,5,1,5,15,9,15,0,15,0,15,9,7,1,9,15,15,16,0,0,0,0,0,0,0,0,0,0,0,0,0,0,0,0,0,0,0,0,0,0,0,0,0,0,0,0,0,0,0,0,0,0,0,0,0,0,0,0,0,0,0,0,0,0,0,0,0,0,0,0,0,0,0,0,0,0],"split_type":[0,0,0,0,0,0,0,0,0,0,0,0,0,0,0,0,0,0,0,0,0,0,0,0,0,0,0,0,0,0,0,0,0,0,0,0,0,0,0,0,0,0,0,0,0,0,0,0,0,0,0,0,0,0,0,0,0,0,0,0,0,0,0,0,0,0,0,0,0,0,0,0,0,0,0,0,0,0,0,0,0,0,0,0,0,0,0,0,0,0,0,0,0,0,0,0,0,0,0,0,0,0,0,0,0,0,0,0,0,0,0,0,0,0,0,0,0,0,0],"sum_hessian":[2.4327E4,1.6339E4,7.988E3,4.945E3,1.1394E4,5.515E3,2.473E3,3.49E3,1.455E3,5.796E3,5.598E3,3.423E3,2.092E3,1.521E3,9.52E2,1.652E3,1.838E3,7.24E2,7.31E2,5.109E3,6.87E2,2.373E3,3.225E3,1.805E3,1.618E3,9.5E2,1.142E3,5.72E2,9.49E2,6.66E2,2.86E2,2.15E2,1.437E3,7.84E2,1.054E3,1.99E2,5.25E2,4.54E2,2.77E2,2.218E3,2.891E3,4.43E2,2.44E2,2.225E3,1.48E2,3.146E3,7.9E1,1.787E3,1.8E1,1.612E3,6E0,9.43E2,7E0,1.057E3,8.5E1,8E0,5.64E2,1.54E2,7.95E2,6.31E2,3.5E1,1.9E2,9.6E1,1.54E2,6.1E1,1.393E3,4.4E1,7.66E2,1.8E1,7.05E2,3.49E2,1.94E2,5E0,1.72E2,3.53E2,2.06E2,2.48E2,1.42E2,1.35E2,8.21E2,1.397E3,1.392E3,1.499E3,4.37E2,6E0,1.66E2,7.8E1,2.22E3,5E0,1.15E2,3.3E1,3.135E3,1.1E1,5.2E1,2.7E1,1.128E3,6.59E2,1.4E1,4E0,9.51E2,6.61E2,3.77E2,5.66E2,5.39E2,5.18E2,4.3E1,4.2E1,6E0,2E0,5.56E2,8E0,1.18E2,3.6E1,5.44E2,2.51E2,3.56E2,2.75E2,2.3E1,1.2E1],"tree_param":{"num_deleted":"0","num_feature":"17","num_nodes":"119","size_leaf_vector":"1"}},{"base_weights":[6.455236E-3,-4.282387E0,8.778476E0,-1.0457038E1,-1.6019037E0,5.3699946E0,1.5589584E1,-1.3732788E1,-2.8352106E0,-3.2304676E0,1.952828E-1,3.7299874E0,7.8975043E0,1.2990047E1,2.0243118E1,-1.819593E1,-1.0797077E1,-5.375694E0,-9.635556E-1,-3.63108E0,1.0488899E-1,-6.9509566E-1,1.05491E0,2.9212837E0,4.6377916E0,6.8735237E0,9.11735E0,1.1318869E1,1.4318594E1,1.8718548E1,2.614962E1,-2.3789694E1,-1.7357553E1,-1.3345945E1,-9.12957E0,-7.5956883E0,-4.3874598E0,-1.870466E0,9.35288E-1,-4.6981173E0,-2.7395346E0,-6.443292E-1,1.8773587E0,-8.8679427E-1,1.5827156E0,9.6681374E-1,4.280711E0,2.8611283E0,8.130857E0,4.602834E0,6.3487285E-1,6.7994337E0,7.726715E-1,8.852726E0,1.1238347E1,1.8727818E1,1.1165476E1,1.727493E1,1.3724937E1,1.8388948E1,2.4845522E1,1.1963547E0,1.4051282E0,-1.3153396E0,-8.1606716E-1,-8.8716763E-1,-3.167388E-1,-6.785192E-1,-2.64963E-1,-5.1859367E-1,-4.1176993E-1,-3.8693684E-1,-9.2377886E-2,-2.50339E-1,-1.8961787E-1,-1.3393387E-1,-6.302555E-2,2.4207225E-2,1.4206927E-1,-2.4481475E-1,-1.14150204E-1,-1.6212258E-1,-1.1349093E-1,-7.14223E-2,-2.1909322E-3,7.241031E-2,1.7564099E-1,-4.685894E-2,3.9843258E-1,4.647714E-2,1.4976732E-1,2.5723046E-2,7.622441E-2,1.6912787E-1,2.84281E-1,1.2565719E-1,1.6473661E-1,2.2597757E-1,8.669302E-1,2.1009977E-1,2.55748E-1,3.126262E-1,3.6681402E-1,4.1493064E-1,4.6962473E-1,7.647318E-1,4.1306287E-1,4.483667E-1,1.157697E0,5.5232805E-1,8.7791157E-1,6.99639E-1,1.3682071E0,6.525046E-1,7.5649804E-1,8.5820705E-1,1.0161865E0,8.21348E-1,1.9238147E0],"categories":[],"categories_nodes":[],"categories_segments":[],"categories_sizes":[],"default_left":[0,0,0,0,0,0,0,0,0,0,0,0,0,0,0,0,0,0,0,0,0,0,0,0,0,0,0,0,0,0,0,0,0,0,0,0,0,0,0,0,0,0,0,0,0,0,0,0,0,0,0,0,0,0,0,0,0,0,0,0,0,0,0,0,0,0,0,0,0,0,0,0,0,0,0,0,0,0,0,0,0,0,0,0,0,0,0,0,0,0,0,0,0,0,0,0,0,0,0,0,0,0,0,0,0,0,0,0,0,0,0,0,0,0,0,0,0,0,0],"id":11,"left_children":[1,3,5,7,9,11,13,15,17,19,21,23,25,27,29,31,33,35,37,39,41,43,45,47,49,51,53,55,57,59,61,63,65,67,69,71,73,75,77,79,81,83,85,87,89,91,93,95,97,99,-1,101,-1,103,105,107,109,111,113,115,117,-1,-1,-1,-1,-1,-1,-1,-1,-1,-1,-1,-1,-1,-1,-1,-1,-1,-1,-1,-1,-1,-1,-1,-1,-1,-1,-1,-1,-1,-1,-1,-1,-1,-1,-1,-1,-1,-1,-1,-1,-1,-1,-1,-1,-1,-1,-1,-1,-1,-1,-1,-1,-1,-1,-1,-1,-1,-1],"loss_changes":[9.15301E5,2.704274E5,1.8538519E5,1.23448875E5,3.335189E4,2.2047531E4,3.19635E4,4.5125062E4,7.070123E3,7.98809E3,4.1476357E3,2.3592031E3,2.5541875E3,3.6389688E3,8.0921875E3,6.016625E3,8.756953E3,1.3510098E3,1.479295E3,5.0642812E3,8.537641E2,1.1637747E3,7.793479E2,5.1325E2,3.700957E2,6.2151953E2,4.3539844E2,6.5803125E2,1.4301875E3,1.0799062E3,1.6529688E2,2.8791953E3,4.9736875E3,1.4162031E3,1.3208984E3,1.4439746E2,1.4280957E2,2.8304053E2,2.3768304E2,1.1509219E3,6.8006445E2,2.127708E2,1.2896844E2,1.1032803E3,1.8821295E2,6.765488E2,7.2881226E1,2.4732324E2,5.534252E2,2.8970898E2,0E0,2.87375E2,0E0,1.7688281E2,1.1053926E3,3.9718604E2,3.761875E2,4.7498125E3,5.573125E2,1.3715938E3,3.499004E3,0E0,0E0,0E0,0E0,0E0,0E0,0E0,0E0,0E0,0E0,0E0,0E0,0E0,0E0,0E0,0E0,0E0,0E0,0E0,0E0,0E0,0E0,0E0,0E0,0E0,0E0,0E0,0E0,0E0,0E0,0E0,0E0,0E0,0E0,0E0,0E0,0E0,0E0,0E0,0E0,0E0,0E0,0E0,0E0,0E0,0E0,0E0,0E0,0E0,0E0,0E0,0E0,0E0,0E0,0E0,0E0,0E0,0E0],"parents":[2147483647,0,0,1,1,2,2,3,3,4,4,5,5,6,6,7,7,8,8,9,9,10,10,11,11,12,12,13,13,14,14,15,15,16,16,17,17,18,18,19,19,20,20,21,21,22,22,23,23,24,24,25,25,26,26,27,27,28,28,29,29,30,30,31,31,32,32,33,33,34,34,35,35,36,36,37,37,38,38,39,39,40,40,41,41,42,42,43,43,44,44,45,45,46,46,47,47,48,48,49,49,51,51,53,53,54,54,55,55,56,56,57,57,58,58,59,59,60,60],"right_children":[2,4,6,8,10,12,14,16,18,20,22,24,26,28,30,32,34,36,38,40,42,44,46,48,50,52,54,56,58,60,62,64,66,68,70,72,74,76,78,80,82,84,86,88,90,92,94,96,98,100,-1,102,-1,104,106,108,110,112,114,116,118,-1,-1,-1,-1,-1,-1,-1,-1,-1,-1,-1,-1,-1,-1,-1,-1,-1,-1,-1,-1,-1,-1,-1,-1,-1,-1,-1,-1,-1,-1,-1,-1,-1,-1,-1,-1,-1,-1,-1,-1,-1,-1,-1,-1,-1,-1,-1,-1,-1,-1,-1,-1,-1,-1,-1,-1,-1,-1],"split_conditions":[4.0825E1,2.4166666E1,5.8570835E1,1.17E2,3.2541668E1,4.8754166E1,7.122083E1,1.9895834E1,1.5E2,1.6E2,3.6316666E1,4.4429165E1,5.34625E1,6.31375E1,8.572083E1,1.4220834E1,2.18E1,1.28E2,1.77E2,2.7954166E1,1.88E2,1.79E2,2.05E2,1.369E2,1.634E2,1.634E2,1.157E2,3.6E0,1.0107E3,2.94E1,9.242083E1,8.1E1,9.72E1,1.068E2,2.2808332E1,8.13E1,1.39E2,1.61E2,1.99E2,1.39E2,3.0045834E1,1.72E2,2.05E2,1.509E2,1.99E2,3.8508335E1,2.21E2,4.2758335E1,1.0105E3,4.66E1,6.3487285E-1,5.1241665E1,7.726715E-1,5.565E1,5.8E1,1.1815058E1,1.807E2,1.0035E3,6.82125E1,7.7191666E1,1.1318086E1,1.1963547E0,1.4051282E0,-1.3153396E0,-8.1606716E-1,-8.8716763E-1,-3.167388E-1,-6.785192E-1,-2.64963E-1,-5.1859367E-1,-4.1176993E-1,-3.8693684E-1,-9.2377886E-2,-2.50339E-1,-1.8961787E-1,-1.3393387E-1,-6.302555E-2,2.4207225E-2,1.4206927E-1,-2.4481475E-1,-1.14150204E-1,-1.6212258E-1,-1.1349093E-1,-7.14223E-2,-2.1909322E-3,7.241031E-2,1.7564099E-1,-4.685894E-2,3.9843258E-1,4.647714E-2,1.4976732E-1,2.5723046E-2,7.622441E-2,1.6912787E-1,2.84281E-1,1.2565719E-1,1.6473661E-1,2.2597757E-1,8.669302E-1,2.1009977E-1,2.55748E-1,3.126262E-1,3.6681402E-1,4.1493064E-1,4.6962473E-1,7.647318E-1,4.1306287E-1,4.483667E-1,1.157697E0,5.5232805E-1,8.7791157E-1,6.99639E-1,1.3682071E0,6.525046E-1,7.5649804E-1,8.5820705E-1,1.0161865E0,8.21348E-1,1.9238147E0],"split_indices":[15,15,15,5,15,15,15,15,5,5,15,15,15,15,15,15,15,5,5,15,5,5,5,1,1,1,1,3,9,6,15,5,3,3,15,1,5,5,5,5,15,5,5,1,5,15,5,15,9,15,0,15,0,15,7,16,1,9,15,15,16,0,0,0,0,0,0,0,0,0,0,0,0,0,0,0,0,0,0,0,0,0,0,0,0,0,0,0,0,0,0,0,0,0,0,0,0,0,0,0,0,0,0,0,0,0,0,0,0,0,0,0,0,0,0,0,0,0,0],"split_type":[0,0,0,0,0,0,0,0,0,0,0,0,0,0,0,0,0,0,0,0,0,0,0,0,0,0,0,0,0,0,0,0,0,0,0,0,0,0,0,0,0,0,0,0,0,0,0,0,0,0,0,0,0,0,0,0,0,0,0,0,0,0,0,0,0,0,0,0,0,0,0,0,0,0,0,0,0,0,0,0,0,0,0,0,0,0,0,0,0,0,0,0,0,0,0,0,0,0,0,0,0,0,0,0,0,0,0,0,0,0,0,0,0,0,0,0,0,0,0],"sum_hessian":[2.4327E4,1.6339E4,7.988E3,4.945E3,1.1394E4,5.325E3,2.663E3,3.458E3,1.487E3,5.977E3,5.417E3,3.231E3,2.094E3,1.711E3,9.52E2,1.37E3,2.088E3,6.3E2,8.57E2,5.336E3,6.41E2,2.661E3,2.756E3,1.711E3,1.52E3,1.142E3,9.52E2,7.62E2,9.49E2,7.6E2,1.92E2,1.75E2,1.195E3,8.23E2,1.265E3,1.92E2,4.38E2,5.8E2,2.77E2,2.427E3,2.909E3,4.51E2,1.9E2,2.455E3,2.06E2,2.684E3,7.2E1,1.693E3,1.8E1,1.515E3,5E0,1.134E3,8E0,8.51E2,1.01E2,1.3E1,7.49E2,1.54E2,7.95E2,7.25E2,3.5E1,9.6E1,9.6E1,1.29E2,4.6E1,1.154E3,4.1E1,8E2,2.3E1,5.25E2,7.4E2,1.87E2,5E0,2.11E2,2.27E2,2.48E2,3.32E2,2.25E2,5.2E1,2.242E3,1.85E2,1.402E3,1.507E3,1.95E2,2.56E2,1.52E2,3.8E1,2.442E3,1.3E1,1.42E2,6.4E1,1.483E3,1.201E3,4.6E1,2.6E1,9.43E2,7.5E2,1.4E1,4E0,8.55E2,6.6E2,5.68E2,5.66E2,4.28E2,4.23E2,4.1E1,6E1,5E0,8E0,7.38E2,1.1E1,1.18E2,3.6E1,5.44E2,2.51E2,4.5E2,2.75E2,2.3E1,1.2E1],"tree_param":{"num_deleted":"0","num_feature":"17","num_nodes":"119","size_leaf_vector":"1"}},{"base_weights":[6.716328E-3,-4.068606E0,8.342022E0,-9.781864E0,-1.451705E0,5.2734857E0,1.5180222E1,-1.2606018E1,-2.2276306E0,-2.9596152E0,2.1298586E-1,3.6616955E0,7.9077406E0,1.3026454E1,1.9992895E1,-1.5693859E1,-8.805446E0,-3.8399625E0,-2.446123E-1,-3.3278215E0,1.2010961E-1,-5.5076283E-1,1.0929382E0,2.7760293E0,4.544707E0,6.8158174E0,8.996277E0,1.1812659E1,1.4919733E1,1.8314264E1,2.4855618E1,-1.8908367E1,-1.4309479E1,-1.036022E1,-7.734627E0,-5.193996E0,-3.030792E0,-8.3569735E-1,1.8028636E0,-4.291785E0,-2.545406E0,-5.9376633E-1,1.7851846E0,-7.572974E-1,1.4441963E0,1.0244552E0,4.46404E0,2.7182453E0,7.7818384E0,4.0242295E0,5.0623035E0,6.747463E0,7.4334574E-1,1.0029686E1,8.505291E0,1.1658478E1,1.9987583E1,1.8625135E1,1.4254154E1,1.7508312E1,9.9130297E-1,1.1371535E0,2.6711922E1,-1.0330447E0,-6.0921043E-1,-7.3862284E-1,-4.163054E-1,-2.7094424E-2,-5.2528685E-1,-4.2079154E-1,-3.4283507E-1,-3.2306525E-1,-2.3737566E-1,-1.7791781E-1,-1.2664767E-1,-7.258248E-2,-1.1441513E-2,6.733838E-2,1.6889125E-1,-2.2221456E-1,-9.3441986E-2,-1.48678E-1,-1.0220499E-1,-3.4203257E-2,2.1895824E-1,6.930013E-2,1.642481E-1,-4.0481888E-2,2.8371274E-1,4.913722E-2,1.8249197E-1,5.0081965E-2,5.0337595E-1,1.7582712E-1,2.6911154E-1,1.1938103E-1,1.5651087E-1,2.1543205E-1,8.322531E-1,3.3746013E-1,1.9431983E-1,2.5122267E-1,5.929433E-1,3.1074086E-1,3.5888144E-1,4.230981E-1,7.727247E-1,3.9165878E-1,4.6242663E-1,5.3149503E-1,6.2440056E-1,1.0525526E0,3.826608E-1,7.869284E-1,1.8144089E0,6.631084E-1,7.480137E-1,8.5101074E-1,1.1149876E0,1.217544E0,1.501808E0],"categories":[],"categories_nodes":[],"categories_segments":[],"categories_sizes":[],"default_left":[0,0,0,0,0,0,0,0,0,0,0,0,0,0,0,0,0,0,0,0,0,0,0,0,0,0,0,0,0,0,0,0,0,0,0,0,0,0,0,0,0,0,0,0,0,0,0,0,0,0,0,0,0,0,0,0,0,0,0,0,0,0,0,0,0,0,0,0,0,0,0,0,0,0,0,0,0,0,0,0,0,0,0,0,0,0,0,0,0,0,0,0,0,0,0,0,0,0,0,0,0,0,0,0,0,0,0,0,0,0,0,0,0,0,0,0,0,0,0,0,0],"id":12,"left_children":[1,3,5,7,9,11,13,15,17,19,21,23,25,27,29,31,33,35,37,39,41,43,45,47,49,51,53,55,57,59,61,63,65,67,69,71,73,75,77,79,81,83,85,87,89,91,93,95,97,99,101,103,-1,105,107,109,111,113,115,117,-1,-1,119,-1,-1,-1,-1,-1,-1,-1,-1,-1,-1,-1,-1,-1,-1,-1,-1,-1,-1,-1,-1,-1,-1,-1,-1,-1,-1,-1,-1,-1,-1,-1,-1,-1,-1,-1,-1,-1,-1,-1,-1,-1,-1,-1,-1,-1,-1,-1,-1,-1,-1,-1,-1,-1,-1,-1,-1,-1,-1],"loss_changes":[8.264331E5,2.4428566E5,1.6755525E5,1.09481E5,2.8135002E4,2.339125E4,2.5383438E4,4.3705875E4,4.468864E3,6.669301E3,3.581351E3,2.6651328E3,2.4264297E3,3.7580312E3,5.7729688E3,8.896656E3,2.711875E3,8.28999E2,7.6153265E2,3.950996E3,7.487252E2,1.1766095E3,5.6704443E2,4.740547E2,4.4110547E2,4.7697656E2,4.4491406E2,1.0879062E3,1.3745625E3,3.4860938E2,1.4934375E2,7.0191406E3,3.877125E3,9.672656E2,5.385508E2,1.3171826E2,1.18368164E2,1.820828E2,9.67359E1,8.6078906E2,6.167969E2,2.0102657E2,1.0859833E2,8.7511816E2,2.691831E2,4.9087378E2,2.3702332E1,2.232627E2,5.131732E2,2.9640234E2,1.6036523E2,1.9414062E2,0E0,2.68425E3,2.8472656E2,7.469375E2,7.500195E1,4.425457E3,1.9945312E2,5.115E2,0E0,0E0,2.9921875E1,0E0,0E0,0E0,0E0,0E0,0E0,0E0,0E0,0E0,0E0,0E0,0E0,0E0,0E0,0E0,0E0,0E0,0E0,0E0,0E0,0E0,0E0,0E0,0E0,0E0,0E0,0E0,0E0,0E0,0E0,0E0,0E0,0E0,0E0,0E0,0E0,0E0,0E0,0E0,0E0,0E0,0E0,0E0,0E0,0E0,0E0,0E0,0E0,0E0,0E0,0E0,0E0,0E0,0E0,0E0,0E0,0E0,0E0],"parents":[2147483647,0,0,1,1,2,2,3,3,4,4,5,5,6,6,7,7,8,8,9,9,10,10,11,11,12,12,13,13,14,14,15,15,16,16,17,17,18,18,19,19,20,20,21,21,22,22,23,23,24,24,25,25,26,26,27,27,28,28,29,29,30,30,31,31,32,32,33,33,34,34,35,35,36,36,37,37,38,38,39,39,40,40,41,41,42,42,43,43,44,44,45,45,46,46,47,47,48,48,49,49,50,50,51,51,53,53,54,54,55,55,56,56,57,57,58,58,59,59,62,62],"right_children":[2,4,6,8,10,12,14,16,18,20,22,24,26,28,30,32,34,36,38,40,42,44,46,48,50,52,54,56,58,60,62,64,66,68,70,72,74,76,78,80,82,84,86,88,90,92,94,96,98,100,102,104,-1,106,108,110,112,114,116,118,-1,-1,120,-1,-1,-1,-1,-1,-1,-1,-1,-1,-1,-1,-1,-1,-1,-1,-1,-1,-1,-1,-1,-1,-1,-1,-1,-1,-1,-1,-1,-1,-1,-1,-1,-1,-1,-1,-1,-1,-1,-1,-1,-1,-1,-1,-1,-1,-1,-1,-1,-1,-1,-1,-1,-1,-1,-1,-1,-1,-1],"split_conditions":[4.0825E1,2.4429167E1,5.9554165E1,1.24E2,3.2704166E1,4.9516666E1,7.338333E1,2.1379168E1,1.61E2,1.6E2,3.66625E1,4.4429165E1,5.38375E1,6.67E1,8.572083E1,1.7245832E1,2.26625E1,1.39E2,1.88E2,2.8108334E1,1.88E2,1.74E2,2.1E2,1.369E2,4.66E1,1.634E2,1.0096E3,1.807E2,1.0107E3,7.965417E1,9.242083E1,9.2E1,1.09E2,2.4576375E0,2.3666666E1,1.28E2,1.5E2,1.72E2,2.05E2,1.44E2,3.0433332E1,1.276E2,2.05E2,1.243E2,2.05E2,1.807E2,2.21E2,4.2758335E1,1.0105E3,4.4E0,1.634E2,5.1645832E1,7.4334574E-1,1.005E3,5.6616665E1,6.25625E1,1.034E2,1.574183E1,6.90125E1,2.69E1,9.9130297E-1,1.1371535E0,2.6304152E1,-1.0330447E0,-6.0921043E-1,-7.3862284E-1,-4.163054E-1,-2.7094424E-2,-5.2528685E-1,-4.2079154E-1,-3.4283507E-1,-3.2306525E-1,-2.3737566E-1,-1.7791781E-1,-1.2664767E-1,-7.258248E-2,-1.1441513E-2,6.733838E-2,1.6889125E-1,-2.2221456E-1,-9.3441986E-2,-1.48678E-1,-1.0220499E-1,-3.4203257E-2,2.1895824E-1,6.930013E-2,1.642481E-1,-4.0481888E-2,2.8371274E-1,4.913722E-2,1.8249197E-1,5.0081965E-2,5.0337595E-1,1.7582712E-1,2.6911154E-1,1.1938103E-1,1.5651087E-1,2.1543205E-1,8.322531E-1,3.3746013E-1,1.9431983E-1,2.5122267E-1,5.929433E-1,3.1074086E-1,3.5888144E-1,4.230981E-1,7.727247E-1,3.9165878E-1,4.6242663E-1,5.3149503E-1,6.2440056E-1,1.0525526E0,3.826608E-1,7.869284E-1,1.8144089E0,6.631084E-1,7.480137E-1,8.5101074E-1,1.1149876E0,1.217544E0,1.501808E0],"split_indices":[15,15,15,5,15,15,15,15,5,5,15,15,15,15,15,15,15,5,5,15,5,5,5,1,15,1,9,1,9,15,15,5,5,16,15,5,5,5,5,5,15,1,5,1,5,1,5,15,9,4,1,15,0,9,15,15,0,16,15,6,0,0,16,0,0,0,0,0,0,0,0,0,0,0,0,0,0,0,0,0,0,0,0,0,0,0,0,0,0,0,0,0,0,0,0,0,0,0,0,0,0,0,0,0,0,0,0,0,0,0,0,0,0,0,0,0,0,0,0,0,0],"split_type":[0,0,0,0,0,0,0,0,0,0,0,0,0,0,0,0,0,0,0,0,0,0,0,0,0,0,0,0,0,0,0,0,0,0,0,0,0,0,0,0,0,0,0,0,0,0,0,0,0,0,0,0,0,0,0,0,0,0,0,0,0,0,0,0,0,0,0,0,0,0,0,0,0,0,0,0,0,0,0,0,0,0,0,0,0,0,0,0,0,0,0,0,0,0,0,0,0,0,0,0,0,0,0,0,0,0,0,0,0,0,0,0,0,0,0,0,0,0,0,0,0],"sum_hessian":[2.4327E4,1.6339E4,7.988E3,5.132E3,1.1207E4,5.515E3,2.473E3,3.735E3,1.397E3,5.88E3,5.327E3,3.423E3,2.092E3,1.711E3,7.62E2,2.059E3,1.676E3,7.7E2,6.27E2,5.252E3,6.28E2,2.852E3,2.475E3,1.711E3,1.712E3,1.048E3,1.044E3,1.047E3,6.64E2,5.7E2,1.92E2,6.16E2,1.443E3,6.8E2,9.96E2,2.86E2,4.84E2,4.87E2,1.4E2,2.351E3,2.901E3,4.4E2,1.88E2,2.585E3,2.67E2,2.427E3,4.8E1,1.693E3,1.8E1,8.58E2,8.54E2,1.041E3,7E0,3.3E2,7.14E2,1.03E3,1.7E1,9.7E1,5.67E2,3.8E2,1.9E2,9.6E1,9.6E1,4.87E2,1.29E2,1.338E3,1.05E2,1E1,6.7E2,5.56E2,4.4E2,7.1E1,2.15E2,2.32E2,2.52E2,2.41E2,2.46E2,1.1E2,3E1,2.211E3,1.4E2,1.562E3,1.339E3,4.33E2,7E0,1.5E2,3.8E1,2.565E3,2E1,2.22E2,4.5E1,2.422E3,5E0,2.6E1,2.2E1,9.43E2,7.5E2,1.4E1,4E0,3.9E1,8.19E2,8.51E2,3E0,4.72E2,5.69E2,2.58E2,7.2E1,3.81E2,3.33E2,4.66E2,5.64E2,1.5E1,2E0,8.5E1,1.2E1,2.44E2,3.23E2,3.49E2,3.1E1,6.1E1,3.5E1],"tree_param":{"num_deleted":"0","num_feature":"17","num_nodes":"121","size_leaf_vector":"1"}},{"base_weights":[7.0419186E-3,-3.7630947E0,8.142882E0,-9.293711E0,-1.2926853E0,5.3340106E0,1.4810231E1,-1.2174919E1,-2.5947127E0,-2.6250842E0,5.3348184E-1,3.6634974E0,7.801459E0,1.269763E1,1.9002178E1,-1.6052631E1,-9.192385E0,-4.8860774E0,-8.576179E-1,-2.9082434E0,7.7962446E-1,-5.2970763E-2,1.4413865E0,2.8817182E0,4.5393133E0,6.6553035E0,8.841608E0,1.1658585E1,1.4405922E1,1.7403728E1,2.3632818E1,-1.6496502E1,-6.0775623E0,-1.109834E1,-7.575568E0,-6.8122363E0,-3.9335887E0,-1.6837356E0,8.640523E-1,-3.7926576E0,-2.0257607E0,1.6292214E-1,2.2488291E0,-1.00757666E-1,6.94568E0,1.0112954E1,1.4040374E0,2.8243885E0,8.120149E0,4.1977377E0,5.27574E0,6.5766454E0,7.4894696E-1,8.303502E0,9.579321E0,1.1483478E1,1.7225836E1,1.8200293E1,1.3704848E1,1.6908764E1,9.852886E-1,1.080882E0,2.540436E1,-9.6005297E-1,-7.5445455E-1,-4.4924664E-1,6.7468755E-2,-5.6246364E-1,-1.8342249E-1,-3.8356215E-1,-3.0111408E-2,-3.465816E-1,-7.09204E-2,-2.2556196E-1,-1.6906011E-1,-1.2034029E-1,-5.7274174E-2,2.2284288E-2,1.3065442E-1,-1.9959144E-1,-8.712764E-2,-1.20143466E-1,-7.788519E-2,-2.3612758E-2,2.252605E-2,8.931423E-2,2.066555E-1,-1.1589981E-2,1.0617769E-1,5.235724E-1,-1.5131766E-1,6.2504464E-1,9.830462E-2,6.722086E-2,2.2678566E-1,1.2296941E-1,1.6372445E-1,1.1334238E-1,5.81945E-1,4.478948E-1,2.0762102E-1,2.581931E-1,3.9270923E-1,3.2150277E-1,4.1136938E-1,4.6937156E-1,3.8900658E-1,4.7415185E-1,7.013297E-1,1.0160263E0,5.692112E-1,1.0484457E0,4.9375454E-1,7.699446E-1,1.5753787E0,6.39002E-1,7.06809E-1,8.27414E-1,1.0494189E0,1.1576487E0,1.4288036E0],"categories":[],"categories_nodes":[],"categories_segments":[],"categories_sizes":[],"default_left":[0,0,0,0,0,0,0,0,0,0,0,0,0,0,0,0,0,0,0,0,0,0,0,0,0,0,0,0,0,0,0,0,0,0,0,0,0,0,0,0,0,0,0,0,0,0,0,0,0,0,0,0,0,0,0,0,0,0,0,0,0,0,0,0,0,0,0,0,0,0,0,0,0,0,0,0,0,0,0,0,0,0,0,0,0,0,0,0,0,0,0,0,0,0,0,0,0,0,0,0,0,0,0,0,0,0,0,0,0,0,0,0,0,0,0,0,0,0,0,0,0],"id":13,"left_children":[1,3,5,7,9,11,13,15,17,19,21,23,25,27,29,31,33,35,37,39,41,43,45,47,49,51,53,55,57,59,61,63,65,67,69,71,73,75,77,79,81,83,85,87,89,91,93,95,97,99,101,103,-1,105,107,109,111,113,115,117,-1,-1,119,-1,-1,-1,-1,-1,-1,-1,-1,-1,-1,-1,-1,-1,-1,-1,-1,-1,-1,-1,-1,-1,-1,-1,-1,-1,-1,-1,-1,-1,-1,-1,-1,-1,-1,-1,-1,-1,-1,-1,-1,-1,-1,-1,-1,-1,-1,-1,-1,-1,-1,-1,-1,-1,-1,-1,-1,-1,-1],"loss_changes":[7.4624894E5,2.2713347E5,1.4419938E5,9.904153E4,2.7965977E4,2.232039E4,1.9976812E4,4.1360688E4,6.1454004E3,6.408535E3,2.5818926E3,2.2019062E3,2.549625E3,2.5318125E3,5.2363125E3,6.8024062E3,6.1746094E3,1.1950752E3,1.2530808E3,4.7805703E3,4.6263126E2,9.8630585E2,6.0213574E2,4.91208E2,3.6120898E2,5.8566797E2,3.7458594E2,7.2928125E2,1.2694922E3,3.1742188E2,1.3982031E2,5.3894688E3,1.4804387E3,1.0016406E3,7.3059766E2,1.312041E2,1.27697266E2,2.2881348E2,2.0811247E2,1.2437344E3,5.38666E2,6.615889E1,1.2422327E2,8.5394006E2,7.348718E2,1.3105566E2,3.47906E2,2.704121E2,3.4434985E2,1.884414E2,9.762012E1,1.9803516E2,0E0,3.0648438E2,7.080859E1,5.800078E2,5.358198E2,2.7208125E3,1.321875E1,3.5417188E2,0E0,0E0,3.103125E1,0E0,0E0,0E0,0E0,0E0,0E0,0E0,0E0,0E0,0E0,0E0,0E0,0E0,0E0,0E0,0E0,0E0,0E0,0E0,0E0,0E0,0E0,0E0,0E0,0E0,0E0,0E0,0E0,0E0,0E0,0E0,0E0,0E0,0E0,0E0,0E0,0E0,0E0,0E0,0E0,0E0,0E0,0E0,0E0,0E0,0E0,0E0,0E0,0E0,0E0,0E0,0E0,0E0,0E0,0E0,0E0,0E0,0E0],"parents":[2147483647,0,0,1,1,2,2,3,3,4,4,5,5,6,6,7,7,8,8,9,9,10,10,11,11,12,12,13,13,14,14,15,15,16,16,17,17,18,18,19,19,20,20,21,21,22,22,23,23,24,24,25,25,26,26,27,27,28,28,29,29,30,30,31,31,32,32,33,33,34,34,35,35,36,36,37,37,38,38,39,39,40,40,41,41,42,42,43,43,44,44,45,45,46,46,47,47,48,48,49,49,50,50,51,51,53,53,54,54,55,55,56,56,57,57,58,58,59,59,62,62],"right_children":[2,4,6,8,10,12,14,16,18,20,22,24,26,28,30,32,34,36,38,40,42,44,46,48,50,52,54,56,58,60,62,64,66,68,70,72,74,76,78,80,82,84,86,88,90,92,94,96,98,100,102,104,-1,106,108,110,112,114,116,118,-1,-1,120,-1,-1,-1,-1,-1,-1,-1,-1,-1,-1,-1,-1,-1,-1,-1,-1,-1,-1,-1,-1,-1,-1,-1,-1,-1,-1,-1,-1,-1,-1,-1,-1,-1,-1,-1,-1,-1,-1,-1,-1,-1,-1,-1,-1,-1,-1,-1,-1,-1,-1,-1,-1,-1,-1,-1,-1,-1,-1],"split_conditions":[4.1404167E1,2.4429167E1,6.0729168E1,1.16E2,3.3858334E1,4.9925E1,7.338333E1,2.0454166E1,1.5E2,1.72E2,3.7933334E1,4.51375E1,5.43E1,6.7541664E1,8.572083E1,9.43E1,2.24E1,1.28E2,1.77E2,2.8970833E1,1.94E2,1.509E2,1.6E1,1.369E2,4.8116665E1,1.634E2,5.79375E1,1.634E2,1.0118E3,8.24E1,9.242083E1,1.6966667E1,1.12E2,6.89E1,1.188E2,8.13E1,1.39E2,1.61E2,1.99E2,1.44E2,3.1504168E1,1.77E2,2.1E2,1.88E2,3.4E1,1.35E1,2.1E2,4.3345833E1,1.0078E3,2.52E2,1.183E2,1.157E2,7.4894696E-1,1.0094E3,1.807E2,3.7E0,1.034E2,1.574183E1,6.90125E1,2.69E1,9.852886E-1,1.080882E0,2.6304152E1,-9.6005297E-1,-7.5445455E-1,-4.4924664E-1,6.7468755E-2,-5.6246364E-1,-1.8342249E-1,-3.8356215E-1,-3.0111408E-2,-3.465816E-1,-7.09204E-2,-2.2556196E-1,-1.6906011E-1,-1.2034029E-1,-5.7274174E-2,2.2284288E-2,1.3065442E-1,-1.9959144E-1,-8.712764E-2,-1.20143466E-1,-7.788519E-2,-2.3612758E-2,2.252605E-2,8.931423E-2,2.066555E-1,-1.1589981E-2,1.0617769E-1,5.235724E-1,-1.5131766E-1,6.2504464E-1,9.830462E-2,6.722086E-2,2.2678566E-1,1.2296941E-1,1.6372445E-1,1.1334238E-1,5.81945E-1,4.478948E-1,2.0762102E-1,2.581931E-1,3.9270923E-1,3.2150277E-1,4.1136938E-1,4.6937156E-1,3.8900658E-1,4.7415185E-1,7.013297E-1,1.0160263E0,5.692112E-1,1.0484457E0,4.9375454E-1,7.699446E-1,1.5753787E0,6.39002E-1,7.06809E-1,8.27414E-1,1.0494189E0,1.1576487E0,1.4288036E0],"split_indices":[15,15,15,5,15,15,15,15,5,5,15,15,15,15,15,3,15,5,5,15,5,1,7,1,15,1,15,1,9,15,15,15,3,1,3,1,5,5,5,5,15,5,5,5,7,4,5,15,9,2,1,1,0,9,1,3,0,16,15,6,0,0,16,0,0,0,0,0,0,0,0,0,0,0,0,0,0,0,0,0,0,0,0,0,0,0,0,0,0,0,0,0,0,0,0,0,0,0,0,0,0,0,0,0,0,0,0,0,0,0,0,0,0,0,0,0,0,0,0,0,0],"split_type":[0,0,0,0,0,0,0,0,0,0,0,0,0,0,0,0,0,0,0,0,0,0,0,0,0,0,0,0,0,0,0,0,0,0,0,0,0,0,0,0,0,0,0,0,0,0,0,0,0,0,0,0,0,0,0,0,0,0,0,0,0,0,0,0,0,0,0,0,0,0,0,0,0,0,0,0,0,0,0,0,0,0,0,0,0,0,0,0,0,0,0,0,0,0,0,0,0,0,0,0,0,0,0,0,0,0,0,0,0,0,0,0,0,0,0,0,0,0,0,0,0],"sum_hessian":[2.4327E4,1.6624E4,7.703E3,5.132E3,1.1492E4,5.421E3,2.282E3,3.588E3,1.544E3,6.644E3,4.848E3,3.234E3,2.187E3,1.52E3,7.62E2,1.558E3,2.03E3,6.65E2,8.79E2,6.134E3,5.1E2,2.946E3,1.902E3,1.711E3,1.523E3,1.044E3,1.143E3,9.5E2,5.7E2,5.7E2,1.92E2,1.491E3,6.7E1,9.29E2,1.101E3,2.18E2,4.47E2,5.94E2,2.85E2,3.062E3,3.072E3,3.6E2,1.5E2,2.927E3,1.9E1,7E0,1.895E3,1.694E3,1.7E1,1.045E3,4.78E2,1.036E3,8E0,6.68E2,4.75E2,9.24E2,2.6E1,8.5E1,4.85E2,4.76E2,9.4E1,9.6E1,9.6E1,5.06E2,9.85E2,4.8E1,1.9E1,9.1E2,1.9E1,1.086E3,1.5E1,2.13E2,5E0,2.15E2,2.32E2,2.52E2,3.42E2,2.31E2,5.4E1,2.79E3,2.72E2,1.699E3,1.373E3,1.12E2,2.48E2,1.22E2,2.8E1,2.765E3,1.62E2,1.4E1,5E0,5E0,2E0,1.861E3,3.4E1,9.39E2,7.55E2,7E0,1E1,8E0,1.037E3,4.61E2,1.7E1,9.56E2,8E1,2.12E2,4.56E2,4.68E2,7E0,8E0,9.16E2,1.6E1,1E1,7.2E1,1.3E1,1.64E2,3.21E2,4.42E2,3.4E1,6.1E1,3.5E1],"tree_param":{"num_deleted":"0","num_feature":"17","num_nodes":"121","size_leaf_vector":"1"}},{"base_weights":[7.361719E-3,-3.6728687E0,7.5345817E0,-9.285401E0,-1.498165E0,4.6072326E0,1.3384253E1,-1.2317102E1,-2.5250466E0,-3.0178332E0,6.9193944E-2,3.2006843E0,6.7749453E0,1.1149445E1,1.738489E1,-1.6142492E1,-9.906772E0,-4.7705083E0,-8.203799E-1,-3.4082086E0,-1.3848488E-1,-9.197545E-1,7.559194E-1,2.5102181E0,3.9757519E0,5.8937664E0,7.824695E0,9.695843E0,1.230518E1,1.5669602E1,2.1310717E1,-1.6557232E1,-6.3438864E0,-1.1768958E1,-8.352039E0,-6.5559635E0,-3.8029892E0,-1.821283E0,4.5992678E-1,-5.036032E0,-2.8116663E0,-1.0961475E0,9.8842674E-1,-1.1118262E0,1.2595019E0,5.846123E-1,7.300861E-1,2.4566636E0,7.1529136E0,3.9429252E0,5.803669E-1,5.8282886E0,6.748209E-1,7.587376E0,9.730295E0,1.6687857E1,9.552398E0,1.499002E1,1.1766919E1,1.5309846E1,2.1550055E1,9.875857E-1,2.4160809E1,-1.0383832E0,-7.898886E-1,-4.5177895E-1,1.10959075E-1,-5.986491E-1,-1.6431777E-1,-4.230586E-1,-3.579525E-2,-3.3643046E-1,-6.4542346E-2,-2.1602492E-1,-1.6547464E-1,-1.1506408E-1,-6.633949E-2,-1.0902877E-2,8.1491165E-2,-2.665642E-1,-1.3219129E-1,-1.6368237E-1,-1.1015289E-1,-5.919833E-2,2.925012E-1,2.103383E-2,1.0206389E-1,-6.653669E-2,-3.162812E-2,3.3444013E-2,1.2787826E-1,1.739815E-2,6.6568635E-2,1.0803403E-1,1.4127202E-1,1.9274041E-1,7.808324E-1,1.7982997E-1,2.1927273E-1,2.6780492E-1,3.145933E-1,3.5494983E-1,4.0318105E-1,6.7201287E-1,3.508191E-1,3.8778293E-1,1.0394225E0,4.7230607E-1,7.650621E-1,5.952131E-1,1.2254674E0,5.592014E-1,6.490422E-1,7.0644194E-1,8.056652E-1,6.904449E-1,1.7091862E0,1.1007E0,1.3593478E0],"categories":[],"categories_nodes":[],"categories_segments":[],"categories_sizes":[],"default_left":[0,0,0,0,0,0,0,0,0,0,0,0,0,0,0,0,0,0,0,0,0,0,0,0,0,0,0,0,0,0,0,0,0,0,0,0,0,0,0,0,0,0,0,0,0,0,0,0,0,0,0,0,0,0,0,0,0,0,0,0,0,0,0,0,0,0,0,0,0,0,0,0,0,0,0,0,0,0,0,0,0,0,0,0,0,0,0,0,0,0,0,0,0,0,0,0,0,0,0,0,0,0,0,0,0,0,0,0,0,0,0,0,0,0,0,0,0,0,0],"id":14,"left_children":[1,3,5,7,9,11,13,15,17,19,21,23,25,27,29,31,33,35,37,39,41,43,45,47,49,51,53,55,57,59,61,63,65,67,69,71,73,75,77,79,81,83,85,87,89,-1,91,93,95,97,-1,99,-1,101,103,105,107,109,111,113,115,-1,117,-1,-1,-1,-1,-1,-1,-1,-1,-1,-1,-1,-1,-1,-1,-1,-1,-1,-1,-1,-1,-1,-1,-1,-1,-1,-1,-1,-1,-1,-1,-1,-1,-1,-1,-1,-1,-1,-1,-1,-1,-1,-1,-1,-1,-1,-1,-1,-1,-1,-1,-1,-1,-1,-1,-1,-1],"loss_changes":[6.7395956E5,1.9942553E5,1.3674219E5,9.348925E4,2.8053824E4,1.6217258E4,2.3624094E4,2.8884531E4,5.408544E3,6.721207E3,3.9390056E3,1.7196523E3,1.8917891E3,2.7568125E3,6.0835E3,4.8366562E3,5.503922E3,1.0288193E3,1.0324153E3,5.0994688E3,7.727122E2,9.963496E2,9.585342E2,4.0809473E2,3.3527148E2,4.9033594E2,3.5715625E2,6.0585156E2,1.1965E3,1.0811406E3,7.980156E2,3.400375E3,1.1955579E3,1.4801719E3,8.756328E2,1.8493164E2,8.73457E1,1.0423157E2,2.8113806E2,9.825E2,1.0769648E3,2.4299878E2,1.9580313E2,2.2839624E2,1.462555E2,0E0,7.844155E2,1.7879785E2,4.7017224E2,2.1656836E2,0E0,2.147461E2,0E0,1.4092188E2,9.326865E2,3.5155396E2,3.136875E2,4.261258E3,4.180625E2,3.7203125E2,3.0487324E3,0E0,3.1671875E1,0E0,0E0,0E0,0E0,0E0,0E0,0E0,0E0,0E0,0E0,0E0,0E0,0E0,0E0,0E0,0E0,0E0,0E0,0E0,0E0,0E0,0E0,0E0,0E0,0E0,0E0,0E0,0E0,0E0,0E0,0E0,0E0,0E0,0E0,0E0,0E0,0E0,0E0,0E0,0E0,0E0,0E0,0E0,0E0,0E0,0E0,0E0,0E0,0E0,0E0,0E0,0E0,0E0,0E0,0E0,0E0],"parents":[2147483647,0,0,1,1,2,2,3,3,4,4,5,5,6,6,7,7,8,8,9,9,10,10,11,11,12,12,13,13,14,14,15,15,16,16,17,17,18,18,19,19,20,20,21,21,22,22,23,23,24,24,25,25,26,26,27,27,28,28,29,29,30,30,31,31,32,32,33,33,34,34,35,35,36,36,37,37,38,38,39,39,40,40,41,41,42,42,43,43,44,44,46,46,47,47,48,48,49,49,51,51,53,53,54,54,55,55,56,56,57,57,58,58,59,59,60,60,62,62],"right_children":[2,4,6,8,10,12,14,16,18,20,22,24,26,28,30,32,34,36,38,40,42,44,46,48,50,52,54,56,58,60,62,64,66,68,70,72,74,76,78,80,82,84,86,88,90,-1,92,94,96,98,-1,100,-1,102,104,106,108,110,112,114,116,-1,118,-1,-1,-1,-1,-1,-1,-1,-1,-1,-1,-1,-1,-1,-1,-1,-1,-1,-1,-1,-1,-1,-1,-1,-1,-1,-1,-1,-1,-1,-1,-1,-1,-1,-1,-1,-1,-1,-1,-1,-1,-1,-1,-1,-1,-1,-1,-1,-1,-1,-1,-1,-1,-1,-1,-1,-1],"split_conditions":[4.0825E1,2.3666666E1,5.8570835E1,1.15E2,3.1933332E1,4.8754166E1,7.122083E1,1.9429167E1,1.5E2,1.55E2,3.5479168E1,4.4429165E1,5.34625E1,6.31375E1,8.24E1,9.15E1,2.165E1,1.28E2,1.72E2,2.5879168E1,1.77E2,1.77E2,1.4E1,1.369E2,1.634E2,1.634E2,1.157E2,3.6E0,1.0107E3,2.94E1,9.242083E1,1.4220834E1,1.102E2,1.084E2,1.14E2,7.99E1,1.39E2,1.61E2,1.88E2,1.29E2,2.9254168E1,1.276E2,1.94E2,3.43875E1,1.99E2,5.846123E-1,3.83625E1,4.2758335E1,1.0105E3,4.66E1,5.803669E-1,5.1241665E1,6.748209E-1,5.565E1,5.8E1,1.1815058E1,1.807E2,1.0035E3,6.82125E1,7.4425E1,1.1318086E1,9.875857E-1,2.6304152E1,-1.0383832E0,